{"learner":{"attributes":{"best_iteration":"899","best_ntree_limit":"900","scikit_learn":"{\"objective\": \"reg:squarederror\", \"max_leaves\": null, \"max_bin\": null, \"grow_policy\": null, \"learning_rate\": 0.6, \"verbosity\": null, \"booster\": null, \"tree_method\": null, \"min_child_weight\": null, \"max_delta_step\": null, \"subsample\": null, \"sampling_method\": null, \"colsample_bytree\": null, \"colsample_bylevel\": null, \"colsample_bynode\": null, \"reg_alpha\": null, \"reg_lambda\": null, \"scale_pos_weight\": null, \"base_score\": null, \"missing\": NaN, \"num_parallel_tree\": null, \"random_state\": 33, \"n_jobs\": null, \"monotone_constraints\": null, \"interaction_constraints\": null, \"importance_type\": null, \"gpu_id\": null, \"validate_parameters\": null, \"predictor\": null, \"enable_categorical\": false, \"feature_types\": null, \"max_cat_to_onehot\": null, \"max_cat_threshold\": null, \"eval_metric\": null, \"early_stopping_rounds\": null, \"callbacks\": null, \"_estimator_type\": \"regressor\"}"},"feature_names":[],"feature_types":[],"gradient_booster":{"model":{"gbtree_model_param":{"num_parallel_tree":"1","num_trees":"900","size_leaf_vector":"0"},"tree_info":[0,0,0,0,0,0,0,0,0,0,0,0,0,0,0,0,0,0,0,0,0,0,0,0,0,0,0,0,0,0,0,0,0,0,0,0,0,0,0,0,0,0,0,0,0,0,0,0,0,0,0,0,0,0,0,0,0,0,0,0,0,0,0,0,0,0,0,0,0,0,0,0,0,0,0,0,0,0,0,0,0,0,0,0,0,0,0,0,0,0,0,0,0,0,0,0,0,0,0,0,0,0,0,0,0,0,0,0,0,0,0,0,0,0,0,0,0,0,0,0,0,0,0,0,0,0,0,0,0,0,0,0,0,0,0,0,0,0,0,0,0,0,0,0,0,0,0,0,0,0,0,0,0,0,0,0,0,0,0,0,0,0,0,0,0,0,0,0,0,0,0,0,0,0,0,0,0,0,0,0,0,0,0,0,0,0,0,0,0,0,0,0,0,0,0,0,0,0,0,0,0,0,0,0,0,0,0,0,0,0,0,0,0,0,0,0,0,0,0,0,0,0,0,0,0,0,0,0,0,0,0,0,0,0,0,0,0,0,0,0,0,0,0,0,0,0,0,0,0,0,0,0,0,0,0,0,0,0,0,0,0,0,0,0,0,0,0,0,0,0,0,0,0,0,0,0,0,0,0,0,0,0,0,0,0,0,0,0,0,0,0,0,0,0,0,0,0,0,0,0,0,0,0,0,0,0,0,0,0,0,0,0,0,0,0,0,0,0,0,0,0,0,0,0,0,0,0,0,0,0,0,0,0,0,0,0,0,0,0,0,0,0,0,0,0,0,0,0,0,0,0,0,0,0,0,0,0,0,0,0,0,0,0,0,0,0,0,0,0,0,0,0,0,0,0,0,0,0,0,0,0,0,0,0,0,0,0,0,0,0,0,0,0,0,0,0,0,0,0,0,0,0,0,0,0,0,0,0,0,0,0,0,0,0,0,0,0,0,0,0,0,0,0,0,0,0,0,0,0,0,0,0,0,0,0,0,0,0,0,0,0,0,0,0,0,0,0,0,0,0,0,0,0,0,0,0,0,0,0,0,0,0,0,0,0,0,0,0,0,0,0,0,0,0,0,0,0,0,0,0,0,0,0,0,0,0,0,0,0,0,0,0,0,0,0,0,0,0,0,0,0,0,0,0,0,0,0,0,0,0,0,0,0,0,0,0,0,0,0,0,0,0,0,0,0,0,0,0,0,0,0,0,0,0,0,0,0,0,0,0,0,0,0,0,0,0,0,0,0,0,0,0,0,0,0,0,0,0,0,0,0,0,0,0,0,0,0,0,0,0,0,0,0,0,0,0,0,0,0,0,0,0,0,0,0,0,0,0,0,0,0,0,0,0,0,0,0,0,0,0,0,0,0,0,0,0,0,0,0,0,0,0,0,0,0,0,0,0,0,0,0,0,0,0,0,0,0,0,0,0,0,0,0,0,0,0,0,0,0,0,0,0,0,0,0,0,0,0,0,0,0,0,0,0,0,0,0,0,0,0,0,0,0,0,0,0,0,0,0,0,0,0,0,0,0,0,0,0,0,0,0,0,0,0,0,0,0,0,0,0,0,0,0,0,0,0,0,0,0,0,0,0,0,0,0,0,0,0,0,0,0,0,0,0,0,0,0,0,0,0,0,0,0,0,0,0,0,0,0,0,0,0,0,0,0,0,0,0,0,0,0,0,0,0,0,0,0,0,0,0,0,0,0,0,0,0,0,0,0,0,0,0,0,0,0,0,0,0,0,0,0,0,0,0,0,0,0,0,0,0,0,0,0,0,0,0,0,0,0,0,0,0,0,0,0,0,0,0,0,0,0,0,0,0,0,0,0,0,0,0,0,0,0,0,0,0,0,0,0,0,0,0,0,0,0,0,0,0,0,0,0,0,0,0,0,0,0,0,0,0,0,0,0,0,0,0,0,0,0,0,0,0,0,0,0,0,0,0,0,0,0,0,0,0,0,0,0,0,0,0,0,0,0,0,0,0,0,0,0,0,0,0,0,0,0,0,0,0,0,0,0,0,0,0,0,0,0,0,0,0],"trees":[{"base_weights":[1.586408E9,1.0775416E9,4.054147E9,9.1562714E8,1.4310392E9,2.415E9,4.6365E9,1.0299079E9,6.9234886E8,1.1599091E9,1.5821667E9,9.97E8,2.6193334E9,5.5416666E8,1.1018924E9,5.7975E8,1.1125E9,3.4933334E8,1.2235E9,1.6052759E9,4.56E8,2.7775E9,6.77E8,3.7575E8,1.1309677E9,3.977E8,6.257037E8,1.1393443E9,3.1E8],"categories":[],"categories_nodes":[],"categories_segments":[],"categories_sizes":[],"default_left":[1,1,1,1,1,1,0,1,1,1,1,0,1,0,1,1,0,0,0,0,0,0,0,0,1,0,0,0,0],"id":0,"left_children":[1,3,5,7,9,11,-1,13,15,17,19,-1,21,-1,23,25,-1,-1,-1,-1,-1,-1,-1,-1,27,-1,-1,-1,-1],"loss_changes":[2.4803712E20,8.305412E18,2.1257905E19,2.2978913E18,2.5455893E17,5.757131E17,0E0,1.9920512E18,1.3892945E18,7.0658795E17,4.873915E16,0E0,8.845439E17,0E0,9.473832E17,5.2329057E16,0E0,0E0,0E0,0E0,0E0,0E0,0E0,0E0,7.31747E16,0E0,0E0,0E0,0E0],"parents":[2147483647,0,0,1,1,2,2,3,3,4,4,5,5,7,7,8,8,9,9,10,10,12,12,14,14,15,15,24,24],"right_children":[2,4,6,8,10,12,-1,14,16,18,20,-1,22,-1,24,26,-1,-1,-1,-1,-1,-1,-1,-1,28,-1,-1,-1,-1],"split_conditions":[1.6012455E6,2.7047E3,4.3848E3,4.253E3,2.160324E6,3.43665E3,2.7819E9,3.0084E3,9.482255E5,2.808645E5,1.493835E4,5.982E8,2.8403745E6,3.325E8,8.188875E5,1.63088E5,6.675E8,2.0960002E8,7.3410003E8,9.631656E8,2.736E8,1.6665E9,4.0620003E8,2.2545002E8,2.66635E3,2.3862002E8,3.754222E8,6.836066E8,1.86E8],"split_indices":[3,5,2,4,0,2,0,7,6,6,1,0,3,0,0,6,0,0,0,0,0,0,0,0,5,0,0,0,0],"split_type":[0,0,0,0,0,0,0,0,0,0,0,0,0,0,0,0,0,0,0,0,0,0,0,0,0,0,0,0,0],"sum_hessian":[2E2,1.67E2,3.3E1,1.17E2,5E1,1E1,2.3E1,7.5E1,4.2E1,2.1E1,2.9E1,2E0,8E0,1.1E1,6.4E1,3.5E1,7E0,2E0,1.9E1,2.8E1,1E0,7E0,1E0,3E0,6.1E1,9E0,2.6E1,6E1,1E0],"tree_param":{"num_deleted":"0","num_feature":"8","num_nodes":"29","size_leaf_vector":"0"}},{"base_weights":[6.860177E8,4.95262E8,2.2155635E9,4.2799254E8,9.5892474E8,1.7122222E9,3.58448E9,3.9556202E8,6.3360666E8,5.965006E8,1.2112365E9,1.8733E9,2.824E8,4.6873683E8,2.9311043E8,6.835861E8,2.6279226E8,7.11059E8,2.182586E8,1.0634429E9,2.2528701E9,3.067063E8,5.327016E8,2.4396901E8,4.7344054E8,9.049984E6,2.8497814E8,3.791792E8,1.4012272E7,1.0118994E9,4.4359376E8,2.6981795E8,-4.263511E7],"categories":[],"categories_nodes":[],"categories_segments":[],"categories_sizes":[],"default_left":[1,1,1,1,1,1,0,1,1,1,0,1,0,1,1,0,0,0,1,0,0,1,1,1,0,0,0,0,0,0,0,0,0],"id":1,"left_children":[1,3,5,7,9,11,-1,13,15,17,-1,19,-1,21,23,-1,-1,-1,25,-1,-1,27,29,31,-1,-1,-1,-1,-1,-1,-1,-1,-1],"loss_changes":[5.754842E19,5.203848E18,9.021282E18,8.096078E17,1.289261E18,3.616606E18,0E0,9.1217024E17,1.910209E17,3.2144442E17,0E0,2.5225611E18,0E0,6.657554E17,4.25058E17,0E0,0E0,0E0,5.3254176E16,0E0,0E0,5.2499646E17,1.9423434E18,3.819247E17,0E0,0E0,0E0,0E0,0E0,0E0,0E0,0E0,0E0],"parents":[2147483647,0,0,1,1,2,2,3,3,4,4,5,5,7,7,8,8,9,9,11,11,13,13,14,14,18,18,21,21,22,22,23,23],"right_children":[2,4,6,8,10,12,-1,14,16,18,-1,20,-1,22,24,-1,-1,-1,26,-1,-1,28,30,32,-1,-1,-1,-1,-1,-1,-1,-1,-1],"split_conditions":[3.6142135E6,6.48455E3,8.175485E6,1.329204E6,8.83291E5,1.7211898E4,2.150688E9,4.12295E3,3.43665E3,3.248205E6,7.267419E8,9.03565E3,1.6944E8,1.1132E3,7.454935E5,4.1015168E8,1.5767536E8,4.2663542E8,7.36369E5,6.380657E8,1.3517221E9,5.481215E5,2.48082E5,2.266253E6,2.8406435E8,5.4299905E6,1.709869E8,2.2750754E8,8.407364E6,6.0713965E8,2.6615627E8,1.6189078E8,-2.5581068E7],"split_indices":[0,5,0,6,6,4,0,4,2,0,0,1,0,5,6,0,0,0,6,0,0,3,6,0,0,0,0,0,0,0,0,0,0],"split_type":[0,0,0,0,0,0,0,0,0,0,0,0,0,0,0,0,0,0,0,0,0,0,0,0,0,0,0,0,0,0,0,0,0],"sum_hessian":[2E2,1.79E2,2.1E1,1.58E2,2.1E1,1.7E1,4E0,1.39E2,1.9E1,1E1,1.1E1,1.5E1,2E0,7.9E1,6E1,1.6E1,3E0,7E0,3E0,6E0,9E0,2.4E1,5.5E1,4.9E1,1.1E1,1E0,2E0,1.9E1,5E0,7E0,4.8E1,4.5E1,4E0],"tree_param":{"num_deleted":"0","num_feature":"8","num_nodes":"33","size_leaf_vector":"0"}},{"base_weights":[3.129002E8,2.1714482E8,1.0821307E9,1.6885755E8,4.437882E8,8.239283E8,2.038059E9,3.0633734E8,1.4535037E8,6.209239E8,3.5517907E8,1.1285876E9,5.521614E8,6.8950246E8,2.2971458E8,1.0017777E8,2.3136552E8,1.111591E8,4.0070122E8,6.1176166E8,1.6944E8,7.255717E7,2.9666742E8,2.2525867E8,5.947811E7,2.7253494E8,6.4136E7,1.3578139E8,6.334976E6,4.1902768E8,3.541235E7,2.8262573E8,7.1244486E8,3.0357208E7,9.661784E7,3.0886995E8,7.511856E7,8.652567E7,4.398841E8,-7.18235E7,9.551672E7,1.21444776E8,3.0597018E8,-1.10610376E8,3.5390816E8,2.731223E8,4.8704726E8,1.5486714E8,7.7956326E8],"categories":[],"categories_nodes":[],"categories_segments":[],"categories_sizes":[],"default_left":[1,1,1,1,1,1,0,1,1,0,1,0,1,0,1,1,1,1,1,1,0,1,1,1,1,1,1,0,0,1,0,0,1,0,0,0,0,0,0,0,0,0,0,0,0,0,0,0,0],"id":2,"left_children":[1,3,5,7,9,11,-1,13,15,-1,17,-1,19,-1,21,23,25,27,29,31,-1,33,35,37,39,41,43,-1,-1,45,-1,-1,47,-1,-1,-1,-1,-1,-1,-1,-1,-1,-1,-1,-1,-1,-1,-1,-1],"loss_changes":[1.4570271E19,1.8949808E18,3.7508916E18,4.402376E17,2.6603179E17,9.4996705E17,0E0,4.58154E17,4.8194096E17,0E0,2.1094983E17,0E0,1.7006669E17,0E0,1.7839528E17,4.294972E17,2.8544944E17,1.2044884E16,1.12355795E17,1.30029345E17,0E0,4.1744677E15,1.1943101E16,5.872268E17,3.2389946E17,1.3965227E17,5.455123E17,0E0,0E0,4.5616264E16,0E0,0E0,1.4123749E17,0E0,0E0,0E0,0E0,0E0,0E0,0E0,0E0,0E0,0E0,0E0,0E0,0E0,0E0,0E0,0E0],"parents":[2147483647,0,0,1,1,2,2,3,3,4,4,5,5,7,7,8,8,10,10,12,12,14,14,15,15,16,16,17,17,18,18,19,19,21,21,22,22,23,23,24,24,25,25,26,26,29,29,32,32],"right_children":[2,4,6,8,10,12,-1,14,16,-1,18,-1,20,-1,22,24,26,28,30,32,-1,34,36,38,40,42,44,-1,-1,46,-1,-1,48,-1,-1,-1,-1,-1,-1,-1,-1,-1,-1,-1,-1,-1,-1,-1,-1],"split_conditions":[3.6142135E6,1.1578755E6,8.2168605E6,2.30625E3,4.82105E3,9.05515E3,1.2228355E9,8.734025E5,2.46065E3,3.7255437E8,8.501835E5,6.7715264E8,1.7211898E4,4.137015E8,1.90295E3,8.529345E5,2.331108E6,3.288171E6,3.6042355E6,8.8548E3,1.0166401E8,2.8664E3,2.1724E3,8.35991E5,4.3403496E3,1.40028E6,3.9122002E3,8.146884E7,3.8009858E6,3.2544995E6,2.1247412E7,1.6957544E8,1.3948699E4,1.8214326E7,5.7970708E7,1.8532198E8,4.5071136E7,5.1915404E7,2.6393046E8,-4.3094104E7,5.7310036E7,7.286687E7,1.8358211E8,-6.6366228E7,2.1234491E8,1.6387339E8,2.9222838E8,9.292029E7,4.67738E8],"split_indices":[0,3,0,4,4,4,0,0,5,0,6,0,4,0,1,0,0,0,0,1,0,7,4,0,7,0,2,0,0,0,0,0,7,0,0,0,0,0,0,0,0,0,0,0,0,0,0,0,0],"split_type":[0,0,0,0,0,0,0,0,0,0,0,0,0,0,0,0,0,0,0,0,0,0,0,0,0,0,0,0,0,0,0,0,0,0,0,0,0,0,0,0,0,0,0,0,0,0,0,0,0],"sum_hessian":[2E2,1.79E2,2.1E1,1.49E2,3E1,1.8E1,3E0,2E1,1.29E2,8E0,2.2E1,7E0,1.1E1,2E0,1.8E1,8.6E1,4.3E1,4E0,1.8E1,9E0,2E0,6E0,1.2E1,2E1,6.6E1,3.4E1,9E0,3E0,1E0,1.7E1,1E0,3E0,6E0,3E0,3E0,1.1E1,1E0,1.3E1,7E0,1.4E1,5.2E1,7E0,2.7E1,6E0,3E0,7E0,1E1,1E0,5E0],"tree_param":{"num_deleted":"0","num_feature":"8","num_nodes":"49","size_leaf_vector":"0"}},{"base_weights":[1.5063184E8,8.9519656E7,4.9598733E8,7.713849E7,2.1396669E8,3.9787382E8,1.2463843E9,1.16777576E8,3.7030656E7,2.5388474E8,4.072083E7,4.2630122E8,1.887855E7,8.612874E7,2.320743E8,6.73925E6,1.11807656E8,1.6369376E8,3.9334326E8,4.434432E6,5.1338156E7,2.8842602E8,6.180589E8,2.8998016E7,-6.80192E5,1.5094267E8,4.3466812E7,3.2060346E8,-2.6810496E7,5.318297E7,-1.0840048E8,1.3928986E8,-5.355525E7,1.9011752E8,8.313467E7,3.1337606E8,-5.538739E7,6.592881E8,1.2349798E8,5.3065816E7,3.1904976E8,-5.4221844E7,9.815386E7,3.7641498E8,1.6718434E8,1.1446586E8,-9.074605E7,1.4568477E7,1.4850515E8,-4.709696E6,-1.3994306E8,1.5836158E8,2.3412544E7,-1.3110915E8,1.5999104E7,2.0565405E8,4.2249667E8],"categories":[],"categories_nodes":[],"categories_segments":[],"categories_sizes":[],"default_left":[1,1,1,1,1,1,0,1,1,1,1,1,1,1,1,1,1,1,0,0,0,1,1,0,0,1,1,1,1,1,1,1,1,0,0,1,0,0,0,0,0,0,0,0,0,0,0,0,0,0,0,0,0,0,0,0,0],"id":3,"left_children":[1,3,5,7,9,11,-1,13,15,17,19,21,23,25,27,29,31,33,-1,-1,-1,35,37,-1,-1,39,41,43,45,47,49,51,53,-1,-1,55,-1,-1,-1,-1,-1,-1,-1,-1,-1,-1,-1,-1,-1,-1,-1,-1,-1,-1,-1,-1,-1],"loss_changes":[4.1977916E18,2.4851244E17,1.7128181E18,2.4686991E17,9.339623E16,2.9361936E17,0E0,2.5917496E17,1.8045456E17,8.654696E16,1.3134021E15,5.091404E17,6.134963E14,1.7040461E17,3.7529713E17,3.1592106E17,1.1198399E17,3.3527202E15,0E0,0E0,0E0,1.631858E17,1.2248285E17,0E0,0E0,3.9441417E17,2.1901423E17,3.9819913E16,5.5550235E16,1.5243085E17,5.4942356E16,4.049199E16,2.3674476E16,0E0,0E0,1.01186956E17,0E0,0E0,0E0,0E0,0E0,0E0,0E0,0E0,0E0,0E0,0E0,0E0,0E0,0E0,0E0,0E0,0E0,0E0,0E0,0E0,0E0],"parents":[2147483647,0,0,1,1,2,2,3,3,4,4,5,5,7,7,8,8,9,9,10,10,11,11,12,12,13,13,14,14,15,15,16,16,17,17,21,21,22,22,25,25,26,26,27,27,28,28,29,29,30,30,31,31,32,32,35,35],"right_children":[2,4,6,8,10,12,-1,14,16,18,20,22,24,26,28,30,32,34,-1,-1,-1,36,38,-1,-1,40,42,44,46,48,50,52,54,-1,-1,56,-1,-1,-1,-1,-1,-1,-1,-1,-1,-1,-1,-1,-1,-1,-1,-1,-1,-1,-1,-1,-1],"split_conditions":[2.03053E6,4.456E3,8.251952E6,4.02855E3,3.308857E6,2.4476E4,7.478306E8,1.726477E6,1.066851E6,8.97335E3,3.345293E6,4.81045E3,8.121905E6,4.101125E5,9.683205E5,9.89796E5,6.4505E3,2.7506345E6,2.3600597E8,2.6606592E6,3.0802894E7,9.2727E3,2.43332E4,1.739881E7,-4.0811522E5,3.896215E5,1.0743815E6,3.86405E3,2.060851E6,7.8149E3,2.1674502E3,6.0705E3,3.004608E6,1.1407052E8,4.9880804E7,8.8548E3,-3.3232436E7,3.955729E8,7.409879E7,3.183949E7,1.9142986E8,-3.2533108E7,5.8892316E7,2.25849E8,1.0031061E8,6.867952E7,-5.444763E7,8.741087E6,8.9103096E7,-2.8258178E6,-8.396584E7,9.501695E7,1.4047527E7,-7.8665496E7,9.599463E6,1.2339243E8,2.5349802E8],"split_indices":[6,2,0,4,0,1,0,0,3,5,0,2,0,3,6,3,4,0,0,0,0,1,1,0,0,3,0,4,0,7,5,5,0,0,0,1,0,0,0,0,0,0,0,0,0,0,0,0,0,0,0,0,0,0,0,0,0],"split_type":[0,0,0,0,0,0,0,0,0,0,0,0,0,0,0,0,0,0,0,0,0,0,0,0,0,0,0,0,0,0,0,0,0,0,0,0,0,0,0,0,0,0,0,0,0,0,0,0,0,0,0,0,0,0,0,0,0],"sum_hessian":[2E2,1.71E2,2.9E1,1.57E2,1.4E1,2.7E1,2E0,7.8E1,7.9E1,1.1E1,3E0,2.5E1,2E0,6.3E1,1.5E1,5.7E1,2.2E1,8E0,3E0,1E0,2E0,1.6E1,9E0,1E0,1E0,2.4E1,3.9E1,1.1E1,4E0,4.1E1,1.6E1,1.9E1,3E0,5E0,3E0,1.5E1,1E0,8E0,1E0,1.6E1,8E0,1.4E1,2.5E1,7E0,4E0,1E0,3E0,3E1,1.1E1,4E0,1.2E1,1.6E1,3E0,1E0,2E0,9E0,6E0],"tree_param":{"num_deleted":"0","num_feature":"8","num_nodes":"57","size_leaf_vector":"0"}},{"base_weights":[7.344997E7,6.2914332E7,7.4783046E8,3.3862228E7,1.5360195E8,4.987339E7,-2.31728E7,1.1241176E8,2.2210102E8,-1.7816774E7,6.372814E7,-3.7158468E7,9.100931E7,2.5277806E7,1.3154737E8,3.3854838E8,1.0673303E8,6.0636972E7,-7.076038E7,1.7224666E8,4.5321308E7,-1.9596565E6,-6.603045E7,-5.9254016E7,4.924211E7,1.6678554E8,6.8333016E7,1.3980858E8,4.2983056E8,5.177827E7,2.1770138E8,-1.709136E7,1.023497E8,-1.2561032E8,4.2121576E7,6.84801E7,2.2228586E8,-5.3041108E7,6.1988744E7,-6.737198E7,2.0007758E7,-9.527498E7,-1.0641847E7,9.015098E7,-2.1717078E7,2.3435416E8,8.81928E7,8.90312E7,-1.6539221E7,1.5912533E8,4.092915E7,9.770573E7,4.8843533E8,2.3043626E7,9.1988136E7],"categories":[],"categories_nodes":[],"categories_segments":[],"categories_sizes":[],"default_left":[1,1,0,1,1,1,1,1,1,1,1,1,0,1,1,1,1,1,1,1,1,1,1,0,1,1,1,1,1,1,0,0,0,0,0,0,0,0,0,0,0,0,0,0,0,0,0,0,0,0,0,0,0,0,0],"id":4,"left_children":[1,3,-1,5,7,9,11,13,15,17,19,21,-1,23,25,27,29,31,33,35,37,39,41,-1,43,45,47,49,51,53,-1,-1,-1,-1,-1,-1,-1,-1,-1,-1,-1,-1,-1,-1,-1,-1,-1,-1,-1,-1,-1,-1,-1,-1,-1],"loss_changes":[1.3810611E18,5.190973E17,0E0,1.3996168E17,1.104647E17,1.1273722E17,5.7676802E16,5.0030356E16,1.9224878E17,9.151681E16,1.8994431E17,3.137465E16,0E0,1.7098018E16,4.6519512E16,8.503719E16,4.9710183E16,3.092964E16,8.57813E16,5.747137E16,1.4428056E17,2.2902056E16,2.6522918E16,0E0,1.9374975E16,6.42981E16,2.0796223E16,1.1272571E15,4.9597595E16,7.12359E15,0E0,0E0,0E0,0E0,0E0,0E0,0E0,0E0,0E0,0E0,0E0,0E0,0E0,0E0,0E0,0E0,0E0,0E0,0E0,0E0,0E0,0E0,0E0,0E0,0E0],"parents":[2147483647,0,0,1,1,3,3,4,4,5,5,6,6,7,7,8,8,9,9,10,10,11,11,13,13,14,14,15,15,16,16,17,17,18,18,19,19,20,20,21,21,22,22,24,24,25,25,26,26,27,27,28,28,29,29],"right_children":[2,4,-1,6,8,10,12,14,16,18,20,22,-1,24,26,28,30,32,34,36,38,40,42,-1,44,46,48,50,52,54,-1,-1,-1,-1,-1,-1,-1,-1,-1,-1,-1,-1,-1,-1,-1,-1,-1,-1,-1,-1,-1,-1,-1,-1,-1],"split_conditions":[8.251952E6,2.4164825E6,4.486983E8,4.73035E3,8.97335E3,9.9705E2,1.47177E4,5.28375E3,1.5098551E4,1.97675E3,4.08095E5,9.76791E5,5.4605588E7,4.3847E3,9.159E3,9.561199E3,8.175485E6,1.76785E3,3.13165E3,3.888095E5,1.059818E6,3.01675E3,7.454935E5,-3.5552412E7,1.611965E6,2.671311E6,2.8359035E6,1.127535E4,7.09665E3,5.4579285E6,1.3062083E8,-1.0254816E7,6.140982E7,-7.536619E7,2.5272946E7,4.108806E7,1.3337152E8,-3.1824666E7,3.719325E7,-4.042319E7,1.2004655E7,-5.7164988E7,-6.3851085E6,5.4090588E7,-1.3030247E7,1.406125E8,5.2915684E7,5.3418724E7,-9.923533E6,9.54752E7,2.4557492E7,5.862344E7,2.9306122E8,1.3826176E7,5.5192884E7],"split_indices":[0,0,0,4,5,5,1,4,1,1,3,3,0,1,4,5,0,1,4,3,0,1,6,0,6,6,3,1,1,6,0,0,0,0,0,0,0,0,0,0,0,0,0,0,0,0,0,0,0,0,0,0,0,0,0],"split_type":[0,0,0,0,0,0,0,0,0,0,0,0,0,0,0,0,0,0,0,0,0,0,0,0,0,0,0,0,0,0,0,0,0,0,0,0,0,0,0,0,0,0,0,0,0,0,0,0,0,0,0,0,0,0,0],"sum_hessian":[2E2,1.98E2,2E0,1.51E2,4.7E1,1.18E2,3.3E1,3.1E1,1.6E1,2E1,9.8E1,3E1,3E0,6E0,2.5E1,7E0,9E0,8E0,1.2E1,1.3E1,8.5E1,1.4E1,1.6E1,1E0,5E0,1.5E1,1E1,3E0,4E0,7E0,2E0,3E0,5E0,8E0,4E0,5E0,8E0,1.2E1,7.3E1,3E0,1.1E1,1E1,6E0,3E0,2E0,7E0,8E0,8E0,2E0,2E0,1E0,1E0,3E0,5E0,2E0],"tree_param":{"num_deleted":"0","num_feature":"8","num_nodes":"55","size_leaf_vector":"0"}},{"base_weights":[3.6873092E7,3.0567218E7,6.4902374E8,1.680775E7,1.1112106E8,-7.422568E7,2.0545258E7,7.766649E7,1.5880432E8,-9.074018E7,1.243064E7,2.8445254E7,-2.3087228E7,9.7963816E7,-6.3240532E7,3.2954352E8,8.424633E7,-3.3925652E7,-1.10666024E8,5.0496976E7,6.6110055E6,-8.155416E7,1.266316E7,1.5466907E8,5.297285E7,1.0660348E8,3.9975252E6,-4.267312E7,-8.21536E6,3.0747534E7,1.0584273E8,-8.863218E7,2.1624034E7,-1.2465303E8,-3.204608E7,9.144023E7,-1.8609802E7,4.2251584E7,1.663634E8,2.1997422E7,8.574387E7,1.1636288E8,2.4023552E7,1.3385472E7,-7.389184E6],"categories":[],"categories_nodes":[],"categories_segments":[],"categories_sizes":[],"default_left":[1,1,0,1,1,1,1,1,1,1,0,1,1,1,0,0,1,1,0,1,1,1,1,1,1,1,1,0,0,0,0,0,0,0,0,0,0,0,0,0,0,0,0,0,0],"id":5,"left_children":[1,3,-1,5,7,9,11,13,15,17,-1,19,21,23,-1,-1,25,27,-1,29,31,33,35,37,39,41,43,-1,-1,-1,-1,-1,-1,-1,-1,-1,-1,-1,-1,-1,-1,-1,-1,-1,-1],"loss_changes":[7.5605E17,2.1980794E17,0E0,6.0045953E16,3.39277E16,1.1145552E16,5.787632E16,6.0535958E16,1.1226682E17,3.0380494E15,0E0,6.755524E16,5.5378338E16,3.5177569E16,0E0,0E0,1.5721066E16,3.241248E14,0E0,7.325895E16,1.0486857E17,1.7342782E16,4.3582755E16,2.1733909E15,9.279917E15,2.84606E15,4.196012E14,0E0,0E0,0E0,0E0,0E0,0E0,0E0,0E0,0E0,0E0,0E0,0E0,0E0,0E0,0E0,0E0,0E0,0E0],"parents":[2147483647,0,0,1,1,3,3,4,4,5,5,6,6,7,7,8,8,9,9,11,11,12,12,13,13,16,16,17,17,19,19,20,20,21,21,22,22,23,23,24,24,25,25,26,26],"right_children":[2,4,-1,6,8,10,12,14,16,18,-1,20,22,24,-1,-1,26,28,-1,30,32,34,36,38,40,42,44,-1,-1,-1,-1,-1,-1,-1,-1,-1,-1,-1,-1,-1,-1,-1,-1,-1,-1],"split_conditions":[8.414248E6,2.03053E6,3.8941427E8,7.90345E4,9.65E3,1.7284435E6,1.128864E6,9.2727E3,8.14865E3,8.0935E2,7.4583845E6,4.0587998E3,1.342208E6,2.786155E6,-3.794432E7,1.9772611E8,2.4476E4,8.39828E5,-6.6399616E7,1.5545165E6,4.19945E3,4.0472002E3,1.4126365E6,3.52785E3,6.7003496E3,8.251952E6,8.121905E6,-2.5603874E7,-4.929216E6,1.8448522E7,6.350564E7,-5.3179308E7,1.2974421E7,-7.479182E7,-1.9227648E7,5.486414E7,-1.1165882E7,2.5350952E7,9.981804E7,1.3198454E7,5.1446324E7,6.981773E7,1.4414132E7,8.0312835E6,-4.4335105E6],"split_indices":[0,6,0,6,1,0,6,1,4,5,0,4,6,6,0,0,1,0,0,0,4,4,6,2,5,0,0,0,0,0,0,0,0,0,0,0,0,0,0,0,0,0,0,0,0],"split_type":[0,0,0,0,0,0,0,0,0,0,0,0,0,0,0,0,0,0,0,0,0,0,0,0,0,0,0,0,0,0,0,0,0,0,0,0,0,0,0,0,0,0,0,0,0],"sum_hessian":[2E2,1.99E2,1E0,1.71E2,2.8E1,6E0,1.65E2,1.8E1,1E1,5E0,1E0,1.4E2,2.5E1,1.6E1,2E0,2E0,8E0,2E0,3E0,6.9E1,7.1E1,9E0,1.6E1,6E0,1E1,6E0,2E0,1E0,1E0,5.2E1,1.7E1,9E0,6.2E1,4E0,5E0,4E0,1.2E1,1E0,5E0,6E0,4E0,5E0,1E0,1E0,1E0],"tree_param":{"num_deleted":"0","num_feature":"8","num_nodes":"45","size_leaf_vector":"0"}},{"base_weights":[1.8375068E7,1.3923778E7,4.5431654E8,9.338615E6,1.10193496E8,-3.1946845E6,2.4823782E7,2.8893235E8,5.173459E7,3.6384075E6,-1.188248E8,6.1613428E7,1.4179267E7,1.581312E6,6.81888E7,1.7685706E7,-3.8103148E7,-2.1396888E8,-1.7760544E7,2.9104892E7,1.27197784E8,-2.3221836E7,3.3811428E7,-8.104192E6,1.047616E7,1.6533163E7,8.988333E7,6.8213415E6,1.2535488E8,1.8318963E8,-5.4282444E7,-4.3808E5,-2.3388672E7,7.753917E7,8.846528E6,-3.2727484E7,5.422686E7,4.2159176E7,4.17664E6,-1.0659584E7,3.545933E7],"categories":[],"categories_nodes":[],"categories_segments":[],"categories_sizes":[],"default_left":[1,1,0,1,1,1,1,0,1,1,1,1,1,1,1,1,1,0,1,1,0,1,1,0,0,1,0,0,0,0,0,0,0,0,0,0,0,0,0,0,0],"id":6,"left_children":[1,3,-1,5,7,9,11,-1,13,15,17,19,21,23,25,27,29,-1,31,33,-1,35,37,-1,-1,39,-1,-1,-1,-1,-1,-1,-1,-1,-1,-1,-1,-1,-1,-1,-1],"loss_changes":[3.837151E17,8.7253394E16,0E0,3.734271E16,7.90921E16,8.497423E16,3.2804647E16,0E0,6.4940335E15,6.04822E16,5.389379E16,3.68069E16,5.071515E16,3.4335408E14,5.2378114E15,8.921621E16,1.0303338E17,0E0,3.797261E14,1.3050836E16,0E0,1.944351E16,1.0956182E16,0E0,0E0,1.9219447E15,0E0,0E0,0E0,0E0,0E0,0E0,0E0,0E0,0E0,0E0,0E0,0E0,0E0,0E0,0E0],"parents":[2147483647,0,0,1,1,3,3,4,4,5,5,6,6,8,8,9,9,10,10,11,11,12,12,13,13,14,14,15,15,16,16,18,18,19,19,21,21,22,22,25,25],"right_children":[2,4,-1,6,8,10,12,-1,14,16,18,20,22,24,26,28,30,-1,32,34,-1,36,38,-1,-1,40,-1,-1,-1,-1,-1,-1,-1,-1,-1,-1,-1,-1,-1,-1,-1],"split_conditions":[8.414248E6,5.582129E6,2.7258995E8,2.4832E3,8.14865E3,2.36685E3,6.7704004E3,1.7335942E8,8.81365E3,1.8653225E6,1.5690195E6,1.7269555E6,1.004905E4,5.8577715E6,8.7795E3,8.239535E5,3.8275E3,-1.28381336E8,2.0947285E6,3.5116E3,7.631867E7,7.7217E3,1.747508E6,-4.8625155E6,6.285696E6,5.9976765E6,5.393E7,4.092805E6,7.521293E7,1.09913784E8,-3.2569468E7,-2.62848E5,-1.4033204E7,4.6523504E7,5.307917E6,-1.9636492E7,3.2536118E7,2.5295506E7,2.505984E6,-6.3957505E6,2.1275598E7],"split_indices":[0,6,0,5,4,5,7,0,1,0,0,0,7,0,4,3,4,0,0,1,0,1,3,0,0,0,0,0,0,0,0,0,0,0,0,0,0,0,0,0,0],"split_type":[0,0,0,0,0,0,0,0,0,0,0,0,0,0,0,0,0,0,0,0,0,0,0,0,0,0,0,0,0,0,0,0,0,0,0,0,0,0,0,0,0],"sum_hessian":[2E2,1.99E2,1E0,1.91E2,8E0,1.06E2,8.5E1,1E0,7E0,1.01E2,5E0,1.8E1,6.7E1,2E0,5E0,7.6E1,2.5E1,2E0,3E0,1.3E1,5E0,2.3E1,4.4E1,1E0,1E0,2E0,3E0,7E1,6E0,1E0,2.4E1,1E0,2E0,3E0,1E1,2.1E1,2E0,3.4E1,1E1,1E0,1E0],"tree_param":{"num_deleted":"0","num_feature":"8","num_nodes":"41","size_leaf_vector":"0"}},{"base_weights":[1.0827666E7,7.7015875E6,3.1802163E8,2.4851382E6,5.2047268E7,2.6307376E7,-4.509125E6,1.3910426E8,3.55621E7,-1.8993596E7,5.0500236E7,-4.3390704E7,4.739224E6,6.40384E6,2.0225254E8,9.39705E7,1.8737368E7,-4.1427388E7,3.4159468E7,6.796582E7,-3.994153E7,-2.7623306E7,-1.2714742E8,-1.6068912E8,7.6252195E6,-4.5828308E7,3.1234486E7,4.0556224E7,-5.3681372E7,-1.6215776E7,7.314822E7,-2.1951104E7,9.416226E7,-5.86128E7,1.7371776E7,-7.816187E7,-6.434791E6,2.4606376E7,-3.9741695E6,7.302912E7,2.240189E7],"categories":[],"categories_nodes":[],"categories_segments":[],"categories_sizes":[],"default_left":[1,1,0,1,1,1,1,1,1,1,1,1,1,0,0,0,1,1,1,1,1,1,0,0,1,0,1,0,0,0,0,0,0,0,0,0,0,0,0,0,0],"id":7,"left_children":[1,3,-1,5,7,9,11,13,15,17,19,21,23,-1,-1,-1,25,27,29,31,33,35,-1,-1,37,-1,39,-1,-1,-1,-1,-1,-1,-1,-1,-1,-1,-1,-1,-1,-1],"loss_changes":[1.905735E17,4.613605E16,0E0,3.0110042E16,2.5191297E16,4.589354E16,5.05483E16,2.384422E16,1.6910648E16,1.930151E16,4.5364372E16,3.2144656E16,5.565179E16,0E0,0E0,0E0,1.4341582E16,1.3227999E16,1.1006496E16,5.6243533E16,6.368769E15,2.519714E16,0E0,0E0,2.2355515E16,0E0,3.5321822E15,0E0,0E0,0E0,0E0,0E0,0E0,0E0,0E0,0E0,0E0,0E0,0E0,0E0,0E0],"parents":[2147483647,0,0,1,1,3,3,4,4,5,5,6,6,7,7,8,8,9,9,10,10,11,11,12,12,16,16,17,17,18,18,19,19,20,20,21,21,24,24,26,26],"right_children":[2,4,-1,6,8,10,12,14,16,18,20,22,24,-1,-1,-1,26,28,30,32,34,36,-1,-1,38,-1,40,-1,-1,-1,-1,-1,-1,-1,-1,-1,-1,-1,-1,-1,-1],"split_conditions":[8.414248E6,3.6142135E6,1.90813E8,9.65641E5,8.14865E3,8.37087E5,1.6106001E3,4.9451145E6,3.663104E6,1.09675E3,1.4914E3,1.836282E6,1.0590415E6,3.8423042E6,1.2135153E8,5.63823E7,5.7855845E6,3.828485E5,8.20469E5,3.761505E5,3.53633E5,2.95466E5,-7.6288456E7,-9.641347E7,4.2918496E3,-2.7496986E7,4.4812255E6,2.4333736E7,-3.2208824E7,-9.729466E6,4.3888936E7,-1.3170663E7,5.6497356E7,-3.516768E7,1.0423066E7,-4.6897124E7,-3.8608748E6,1.4763826E7,-2.3845018E6,4.381747E7,1.3441135E7],"split_indices":[0,0,0,0,4,0,5,0,0,2,2,0,0,0,0,0,0,3,0,3,6,6,0,0,4,0,6,0,0,0,0,0,0,0,0,0,0,0,0,0,0],"split_type":[0,0,0,0,0,0,0,0,0,0,0,0,0,0,0,0,0,0,0,0,0,0,0,0,0,0,0,0,0,0,0,0,0,0,0,0,0,0,0,0,0],"sum_hessian":[2E2,1.99E2,1E0,1.79E2,2E1,4E1,1.39E2,2E0,1.8E1,1.4E1,2.6E1,2.6E1,1.13E2,1E0,1E0,3E0,1.5E1,1E1,4E0,2.2E1,4E0,2.3E1,3E0,1E0,1.12E2,2E0,1.3E1,1E0,9E0,2E0,2E0,5E0,1.7E1,3E0,1E0,6E0,1.7E1,4.5E1,6.7E1,1E0,1.2E1],"tree_param":{"num_deleted":"0","num_feature":"8","num_nodes":"41","size_leaf_vector":"0"}},{"base_weights":[5.5048865E6,3.3062608E6,2.2261504E8,-4.3216766E5,3.5192492E7,2.763996E7,-3.5295058E6,7.34391E7,3.8760534E5,1.70856E8,9.165133E6,-1.9467704E7,5.699546E6,9.178709E7,3.1445334E4,-1.6840732E7,3.9054464E7,-2.479098E7,2.9940376E7,9.306215E6,-3.760571E7,2.7028452E7,-6.9902555E6,2.293792E7,1.2850901E8,-1.0660416E7,1.0707584E7,-2.6614126E7,1.1577429E7,4.617728E7,8.843008E6,-8.283469E6,-4.403984E7,4.0914784E7,5.06464E5,-3.919471E7,3.1582756E7,-6.165647E7,-1.1575704E7,6.291409E7,4.4159335E6,-6.449722E7,4.4305815E6,3.5894144E7,6.654464E6,1.8100992E7,1.5158576E8,1.396352E6,1.5969792E7],"categories":[],"categories_nodes":[],"categories_segments":[],"categories_sizes":[],"default_left":[1,1,0,1,1,1,1,1,1,0,1,1,1,1,1,1,1,1,1,1,1,1,1,1,1,0,0,0,1,0,0,0,0,0,0,0,0,0,0,0,0,0,0,0,0,0,0,0,0],"id":8,"left_children":[1,3,-1,5,7,9,11,13,15,-1,17,19,21,23,25,27,29,31,33,35,37,39,41,43,45,-1,-1,-1,47,-1,-1,-1,-1,-1,-1,-1,-1,-1,-1,-1,-1,-1,-1,-1,-1,-1,-1,-1,-1],"loss_changes":[9.521012E16,2.3856087E16,0E0,1.5748352E16,2.7926086E16,4.6060127E16,2.4087351E16,1.3465938E16,8.651694E15,0E0,1.2734841E16,3.1664064E16,2.8337535E16,1.7278464E16,4.565907E14,2.8077997E15,4.524163E14,1.859453E15,3.5324968E15,2.7168269E16,2.2449824E16,3.1369294E16,4.363309E16,6.0503204E14,9.995437E15,0E0,0E0,0E0,1.1185746E14,0E0,0E0,0E0,0E0,0E0,0E0,0E0,0E0,0E0,0E0,0E0,0E0,0E0,0E0,0E0,0E0,0E0,0E0,0E0,0E0],"parents":[2147483647,0,0,1,1,3,3,4,4,5,5,6,6,7,7,8,8,10,10,11,11,12,12,13,13,14,14,15,15,16,16,17,17,18,18,19,19,20,20,21,21,22,22,23,23,24,24,28,28],"right_children":[2,4,-1,6,8,10,12,14,16,-1,18,20,22,24,26,28,30,32,34,36,38,40,42,44,46,-1,-1,-1,48,-1,-1,-1,-1,-1,-1,-1,-1,-1,-1,-1,-1,-1,-1,-1,-1,-1,-1,-1,-1],"split_conditions":[8.414248E6,8.5552E3,1.3356903E8,2.15945E3,1.080145E4,8.75144E5,5.7122E3,1.116935E4,8.175485E6,1.0251361E8,1.93785E3,8.666645E5,9.90036E5,7.56555E3,3.2730865E6,1.7211898E4,8.251952E6,1.84515E3,2.0253999E3,1.565405E5,5.662825E5,3.6912E3,4.0714E3,2.7987475E6,8.87135E3,-6.39625E6,6.4245505E6,-1.5968476E7,8.1093545E6,2.770637E7,5.305805E6,-4.9700815E6,-2.6423906E7,2.4548872E7,3.038784E5,-2.3516828E7,1.8949654E7,-3.6993884E7,-6.9454225E6,3.7748456E7,2.6495602E6,-3.8698332E7,2.658349E6,2.1536488E7,3.9926785E6,1.0860596E7,9.095146E7,8.3781125E5,9.581876E6],"split_indices":[0,5,0,4,5,0,7,4,0,0,1,0,3,1,0,4,0,1,4,6,6,1,4,0,5,0,0,0,0,0,0,0,0,0,0,0,0,0,0,0,0,0,0,0,0,0,0,0,0],"split_type":[0,0,0,0,0,0,0,0,0,0,0,0,0,0,0,0,0,0,0,0,0,0,0,0,0,0,0,0,0,0,0,0,0,0,0,0,0,0,0,0,0,0,0,0,0,0,0,0,0],"sum_hessian":[2E2,1.99E2,1E0,1.79E2,2E1,1.7E1,1.62E2,9E0,1.1E1,1E0,1.6E1,5.9E1,1.03E2,7E0,2E0,8E0,3E0,6E0,1E1,2.3E1,3.6E1,3.8E1,6.5E1,3E0,4E0,1E0,1E0,6E0,2E0,2E0,1E0,4E0,2E0,7E0,3E0,7E0,1.6E1,1.8E1,1.8E1,1.4E1,2.4E1,1E1,5.5E1,1E0,2E0,1E0,3E0,1E0,1E0],"tree_param":{"num_deleted":"0","num_feature":"8","num_nodes":"49","size_leaf_vector":"0"}},{"base_weights":[3.8946202E6,2.355788E6,1.5583053E8,-5.900072E7,3.589647E6,2.3285408E6,4.3346772E7,2.0439612E7,-5.050903E5,8.906479E7,-1.778432E6,-9.375985E6,5.600581E7,-4.160753E7,1.8246394E6,-1.0818389E7,1.267072E7,-4.3040212E7,-8.860874E5,8.214484E7,2.9821952E6,-2.4921436E7,-8.754813E7,-1.8329496E7,4.0513168E6,-7.16288E5,-1.5511296E7],"categories":[],"categories_nodes":[],"categories_segments":[],"categories_sizes":[],"default_left":[1,1,0,0,1,1,1,1,1,0,1,1,1,1,1,1,0,0,0,0,0,0,0,0,0,0,0],"id":9,"left_children":[1,3,-1,-1,5,7,9,11,13,-1,15,17,19,21,23,25,-1,-1,-1,-1,-1,-1,-1,-1,-1,-1,-1],"loss_changes":[4.662747E16,1.5352849E16,0E0,0E0,9.776243E15,9.863781E15,1.2536605E16,2.8096224E16,1.6067433E16,0E0,6.5955565E14,4.2489505E15,1.6386855E16,4.7172957E15,7.2096626E15,1.3111411E14,0E0,0E0,0E0,0E0,0E0,0E0,0E0,0E0,0E0,0E0,0E0],"parents":[2147483647,0,0,1,1,4,4,5,5,6,6,7,7,8,8,10,10,11,11,12,12,13,13,14,14,15,15],"right_children":[2,4,-1,-1,6,8,10,12,14,-1,16,18,20,22,24,26,-1,-1,-1,-1,-1,-1,-1,-1,-1,-1,-1],"split_conditions":[8.414248E6,1.76785E3,9.349832E7,-3.540043E7,7.1504665E6,4.059355E5,7.341629E6,8.37087E5,8.78E2,5.3438876E7,5.9976765E6,1.9977E3,8.734025E5,7.41502E5,4.941735E5,5.9320725E6,7.6024325E6,-2.5824128E7,-5.3165244E5,4.9286904E7,1.7893172E6,-1.4952862E7,-5.252888E7,-1.0997698E7,2.4307902E6,-4.297728E5,-9.306778E6],"split_indices":[0,1,0,0,6,3,6,0,2,0,0,1,0,3,3,0,0,0,0,0,0,0,0,0,0,0,0],"split_type":[0,0,0,0,0,0,0,0,0,0,0,0,0,0,0,0,0,0,0,0,0,0,0,0,0,0,0],"sum_hessian":[2E2,1.99E2,1E0,3E0,1.96E2,1.91E2,5E0,2.5E1,1.66E2,2E0,3E0,1.4E1,1.1E1,8E0,1.58E2,2E0,1E0,2E0,1.2E1,7E0,4E0,7E0,1E0,1.5E1,1.43E2,1E0,1E0],"tree_param":{"num_deleted":"0","num_feature":"8","num_nodes":"27","size_leaf_vector":"0"}},{"base_weights":[1.8467542E6,7.6517456E5,1.0908134E8,-5.219303E6,6.0154145E6,1.1084632E6,-5.3065944E7,6.117079E7,1.5428304E6,-2.8121615E6,6.361677E7,-1.1982771E8,-2.4915804E7,9.282048E7,-2.2518848E7,-8.848662E7,3.346023E6,6.7530565E6,-2.4125764E7,7.82785E7,2.484928E6,-6.828104E7,8.1469865E6,1.0445184E7,1.07206504E8,1.5585376E7,-1.4601978E6,-6.950291E6,2.0704628E7,-4.704517E7,4.6240215E6,3.0707808E7,-1.0810376E7,1.20758E8,2.6500256E7,-5.638016E6,3.4354852E7,-1.9570588E7,9.840938E6],"categories":[],"categories_nodes":[],"categories_segments":[],"categories_sizes":[],"default_left":[1,1,0,1,1,1,1,1,1,1,1,0,1,1,0,0,1,1,1,0,0,0,1,0,1,1,1,0,0,0,0,0,0,0,0,0,0,0,0],"id":10,"left_children":[1,3,-1,5,7,9,11,13,15,17,19,-1,21,23,-1,-1,25,27,29,-1,-1,-1,31,-1,33,35,37,-1,-1,-1,-1,-1,-1,-1,-1,-1,-1,-1,-1],"loss_changes":[2.3229066E16,6.315385E15,0E0,2.8518482E16,2.630114E16,2.0764915E16,1.7687283E16,2.3280217E16,1.6530124E16,1.6472462E16,4.2869765E15,0E0,1.3460265E16,5.99053E15,0E0,0E0,5.846435E15,1.0850164E16,1.6690738E16,0E0,0E0,0E0,2.898125E15,0E0,2.2683311E15,1.1347546E16,1.4928687E16,0E0,0E0,0E0,0E0,0E0,0E0,0E0,0E0,0E0,0E0,0E0,0E0],"parents":[2147483647,0,0,1,1,3,3,4,4,5,5,6,6,7,7,8,8,9,9,10,10,12,12,13,13,16,16,17,17,18,18,22,22,24,24,25,25,26,26],"right_children":[2,4,-1,6,8,10,12,14,16,18,20,-1,22,24,-1,-1,26,28,30,-1,-1,-1,32,-1,34,36,38,-1,-1,-1,-1,-1,-1,-1,-1,-1,-1,-1,-1],"split_conditions":[8.414248E6,2.2115E3,6.544881E7,9.767675E5,1.75095E3,7.8789E3,4.16225E3,2.347563E6,1.76975E3,1.3288695E6,2.088892E6,-7.189663E7,2.0057E3,3.7505E3,-1.3511309E7,-5.3091976E7,7.8107E3,8.69864E5,6.22416E5,4.69671E7,1.4909569E6,-4.0968624E7,1.527E3,6.2671105E6,2.2852E6,1.5473385E6,1.191225E4,-4.1701748E6,1.2422777E7,-2.8227102E7,2.774413E6,1.8424686E7,-6.486226E6,7.24548E7,1.5900154E7,-3.3828098E6,2.0612912E7,-1.1742353E7,5.904563E6],"split_indices":[0,5,0,3,2,7,4,0,2,0,0,0,5,4,0,0,7,0,6,0,0,0,2,0,0,0,7,0,0,0,0,0,0,0,0,0,0,0,0],"split_type":[0,0,0,0,0,0,0,0,0,0,0,0,0,0,0,0,0,0,0,0,0,0,0,0,0,0,0,0,0,0,0,0,0,0,0,0,0,0,0],"sum_hessian":[2E2,1.99E2,1E0,9.3E1,1.06E2,8.3E1,1E1,7E0,9.9E1,7.9E1,4E0,2E0,8E0,5E0,2E0,1E0,9.8E1,5.5E1,2.4E1,3E0,1E0,3E0,5E0,1E0,4E0,2.7E1,7.1E1,2.8E1,2.7E1,1.3E1,1.1E1,2E0,3E0,3E0,1E0,1.3E1,1.4E1,2.7E1,4.4E1],"tree_param":{"num_deleted":"0","num_feature":"8","num_nodes":"39","size_leaf_vector":"0"}},{"base_weights":[9.137848E5,-1.9841827E5,5.573939E7,1.996842E7,-1.7234849E6,7.297092E7,2.0224E6,8.874445E7,7.851461E6,-1.3054478E7,8.224181E5,-8.465088E6,2.3046372E7,-7.495441E6,-6.7999384E7,2.7288912E7,-1.8491886E6,-2.1924756E7,1.6789386E7,3.4773996E7,-4.181792E6,-1.322347E7,1.952993E7,-1.3206805E7,3.5138764E7,-1.5626976E7,3.8754425E6,-6.0707095E6,-3.047055E7,1.056544E6,2.4127536E7,-8.52064E5,-5.420624E6,-1.6769668E7,2.0736E7,-6.649952E6,4.7926464E7,4.58464E5,-2.0268672E7,-8.639888E6,3.990409E7,-6.84381E6,-5.731038E7,5.6066024E7,1.0877756E6],"categories":[],"categories_nodes":[],"categories_segments":[],"categories_sizes":[],"default_left":[1,1,1,1,1,0,0,0,1,1,1,1,1,1,0,1,1,1,1,0,1,1,1,1,1,1,1,0,0,0,0,0,0,0,0,0,0,0,0,0,0,0,0,0,0],"id":11,"left_children":[1,3,5,7,9,-1,-1,-1,11,13,15,17,19,21,-1,23,25,27,29,-1,31,33,35,37,39,41,43,-1,-1,-1,-1,-1,-1,-1,-1,-1,-1,-1,-1,-1,-1,-1,-1,-1,-1],"loss_changes":[1.2267479E16,6.124058E15,3.5549273E15,1.0970214E16,5.347544E15,0E0,0E0,0E0,3.4181605E15,9.8753E15,1.0798088E16,2.747521E15,2.3806692E15,5.2119213E15,0E0,4.914467E15,1.1023874E16,4.9244914E14,3.20858E14,0E0,7.7562034E12,3.5992647E15,4.7792163E15,2.9879936E14,2.848199E15,1.4618382E16,1.4342517E16,0E0,0E0,0E0,0E0,0E0,0E0,0E0,0E0,0E0,0E0,0E0,0E0,0E0,0E0,0E0,0E0,0E0,0E0],"parents":[2147483647,0,0,1,1,2,2,3,3,4,4,8,8,9,9,10,10,11,11,12,12,13,13,15,15,16,16,17,17,18,18,20,20,21,21,22,22,23,23,24,24,25,25,26,26],"right_children":[2,4,6,8,10,-1,-1,-1,12,14,16,18,20,22,-1,24,26,28,30,-1,32,34,36,38,40,42,44,-1,-1,-1,-1,-1,-1,-1,-1,-1,-1,-1,-1,-1,-1,-1,-1,-1,-1],"split_conditions":[8.2168605E6,1.456745E5,4.4812255E6,2.45965E3,2.5884502E3,4.378255E7,1.21344E6,5.324667E7,7.90345E4,2.5611E3,3.0344502E3,1.2968065E6,7.46335E3,2.41955E3,-4.079963E7,8.285905E5,1.6703E3,8.232095E5,1.7284435E6,2.0864398E7,2.058542E6,1.160803E6,2.69635E3,8.255865E5,2.681305E5,1.5579E3,3.8808E3,-3.6424258E6,-1.828233E7,6.3392644E5,1.4476522E7,-5.112384E5,-3.2523745E6,-1.0061801E7,1.24416E7,-3.9899712E6,2.875588E7,2.750784E5,-1.2161204E7,-5.183933E6,2.3942454E7,-4.1062862E6,-3.4386228E7,3.3639616E7,6.526654E5],"split_indices":[0,6,6,4,4,0,0,0,6,4,4,0,1,4,0,0,2,0,0,0,0,0,1,0,6,2,1,0,0,0,0,0,0,0,0,0,0,0,0,0,0,0,0,0,0],"split_type":[0,0,0,0,0,0,0,0,0,0,0,0,0,0,0,0,0,0,0,0,0,0,0,0,0,0,0,0,0,0,0,0,0,0,0,0,0,0,0,0,0,0,0,0,0],"sum_hessian":[2E2,1.97E2,3E0,1.3E1,1.84E2,2E0,1E0,1E0,1.2E1,3.3E1,1.51E2,6E0,6E0,3.1E1,2E0,1.3E1,1.38E2,4E0,2E0,4E0,2E0,2.6E1,5E0,2E0,1.1E1,4E1,9.8E1,2E0,2E0,1E0,1E0,1E0,1E0,2.4E1,2E0,3E0,2E0,1E0,1E0,1E0,1E1,3.4E1,6E0,4E0,9.4E1],"tree_param":{"num_deleted":"0","num_feature":"8","num_nodes":"45","size_leaf_vector":"0"}},{"base_weights":[8.508324E5,3.104312E5,5.4465536E7,6.6173985E6,-2.9165178E6,3.8576532E7,3.4686335E6,-2.7108468E7,-7.292985E5,5.3966976E7,5.1970985E6,-3.9156518E6,1.8423664E7,-4.237019E7,2.7712854E7,2.5857298E7,-2.3137162E6,-4.737024E6,1.2532672E7,1.47801E6,-3.1865628E7,4.037829E7,4.5621875E6,-9.589833E6,-1.04734296E8,9.30128E6,3.594899E7,-1.5470505E7,1.999324E6,-2.0736588E7,4.79907E6,1.1752576E7,-5.1663424E7,5.678373E7,-5.8920215E6,1.847194E7,-2.4169754E7,-4.154083E7,2.6588052E6,-1.0397248E7,1.9333206E7,-4.985037E7,-6.2309345E6,7.6710235E6,-4.2464715E6],"categories":[],"categories_nodes":[],"categories_segments":[],"categories_sizes":[],"default_left":[1,1,0,1,1,1,1,1,1,0,1,1,1,1,0,1,1,0,0,1,1,1,1,1,0,1,0,1,1,0,0,0,0,0,0,0,0,0,0,0,0,0,0,0,0],"id":12,"left_children":[1,3,-1,5,7,9,11,13,15,-1,17,19,21,23,-1,25,27,-1,-1,29,31,33,35,37,-1,39,-1,41,43,-1,-1,-1,-1,-1,-1,-1,-1,-1,-1,-1,-1,-1,-1,-1,-1],"loss_changes":[5.806756E15,4.0897521E15,0E0,6.709155E15,7.0176727E15,2.8018745E15,7.02937E15,1.0377545E16,5.241112E15,0E0,2.7798501E14,6.529464E15,6.20658E15,1.7394472E16,0E0,8.3517625E14,6.670184E15,0E0,0E0,2.8292292E15,6.6519884E15,6.4072515E15,6.0416204E15,2.8499425E15,0E0,9.9146884E14,0E0,8.901386E15,3.1853354E15,0E0,0E0,0E0,0E0,0E0,0E0,0E0,0E0,0E0,0E0,0E0,0E0,0E0,0E0,0E0,0E0],"parents":[2147483647,0,0,1,1,3,3,4,4,5,5,6,6,7,7,8,8,10,10,11,11,12,12,13,13,15,15,16,16,19,19,20,20,21,21,22,22,23,23,25,25,27,27,28,28],"right_children":[2,4,-1,6,8,10,12,14,16,-1,18,20,22,24,-1,26,28,-1,-1,30,32,34,36,38,-1,40,-1,42,44,-1,-1,-1,-1,-1,-1,-1,-1,-1,-1,-1,-1,-1,-1,-1,-1],"split_conditions":[8.414248E6,4.91963E5,3.2679322E7,2.34425E3,5.57581E5,9.892765E5,1.7350025E6,4.60445E3,5.8318E5,3.2380186E7,1.0823935E6,1.4393835E6,3.5799E3,5.41991E5,1.6627713E7,5.74109E5,7.613575E5,-2.8422145E6,7.5196035E6,7.1515E2,9.19E4,4.489885E5,3.861115E5,4.965655E5,-6.284058E7,1.734656E6,2.1569396E7,3.06475E3,5.5521504E3,-1.2441953E7,2.879442E6,7.051546E6,-3.0998056E7,3.407024E7,-3.535213E6,1.1083164E7,-1.4501853E7,-2.49245E7,1.5952832E6,-6.238349E6,1.1599924E7,-2.9910222E7,-3.7385608E6,4.6026145E6,-2.547883E6],"split_indices":[0,6,0,4,6,0,0,2,6,0,0,0,1,6,0,6,6,0,0,2,6,6,6,6,0,0,0,1,4,0,0,0,0,0,0,0,0,0,0,0,0,0,0,0,0],"split_type":[0,0,0,0,0,0,0,0,0,0,0,0,0,0,0,0,0,0,0,0,0,0,0,0,0,0,0,0,0,0,0,0,0,0,0,0,0,0,0,0,0,0,0,0,0],"sum_hessian":[2E2,1.99E2,1E0,6.7E1,1.32E2,5E0,6.2E1,1E1,1.22E2,3E0,2E0,4.2E1,2E1,8E0,2E0,6E0,1.16E2,1E0,1E0,3.6E1,6E0,7E0,1.3E1,6E0,2E0,3E0,3E0,2.8E1,8.8E1,4E0,3.2E1,2E0,4E0,5E0,2E0,9E0,4E0,1E0,5E0,1E0,2E0,5E0,2.3E1,4.6E1,4.2E1],"tree_param":{"num_deleted":"0","num_feature":"8","num_nodes":"45","size_leaf_vector":"0"}},{"base_weights":[2.8629478E5,-8.690153E5,2.0320652E7,1.8970825E6,-9.384231E6,5.618355E7,-1.5088E5,7.6234094E5,5.5354068E7,-4.9766548E7,1.7538625E5,6.86464E6,7.033498E7,-1.0949461E7,5.2735575E6,-1.5342871E6,1.2811456E7,-8.095477E7,-8.625024E6,5.067932E7,-7.0444725E6,-2.24256E6,-1.4181632E7,9.68105E6,-8.381952E6,3.3149635E6,-9.797798E6,2.1249552E7,-2.1815604E7,3.510944E6,-1.0294893E8,6.449728E6,-1.4006144E7,7.5717416E7,8.748117E6,-1.4766074E7,7.158705E6,2.507776E6,1.3627307E7,6.357485E6,-7.0109385E6,-4.3295915E6,-3.4547056E7,6.058056E6,2.9606422E7,-4.209587E7,-6.221568E6,-2.91904E6,-1.6728832E7,-1.1262464E7,2.438464E7,-2.3258222E7,1.0281813E6,4.1316684E7,-1.2613362E7],"categories":[],"categories_nodes":[],"categories_segments":[],"categories_sizes":[],"default_left":[1,1,1,1,1,1,1,1,0,1,1,0,0,1,1,1,1,1,1,1,1,0,0,1,0,1,1,1,1,0,0,0,1,0,1,1,1,0,0,0,0,0,0,0,0,0,0,0,0,0,0,0,0,0,0],"id":13,"left_children":[1,3,5,7,9,11,13,15,-1,17,19,-1,-1,21,23,25,27,29,31,33,35,-1,-1,37,-1,39,41,43,45,-1,-1,-1,47,-1,49,51,53,-1,-1,-1,-1,-1,-1,-1,-1,-1,-1,-1,-1,-1,-1,-1,-1,-1,-1],"loss_changes":[4.6699834E15,4.5166016E15,8.084331E15,8.7534816E15,1.8152587E16,2.3089068E15,5.263524E14,3.9768004E15,0E0,1.0849942E16,1.457763E16,0E0,0E0,5.2623416E13,4.422654E14,4.8811713E15,7.183861E15,9.650207E15,4.959311E14,4.5870025E15,3.9442008E15,0E0,0E0,1.0736365E14,0E0,2.4636638E15,5.940458E15,2.2327565E15,1.3193538E15,0E0,0E0,0E0,7.191466E13,0E0,1.2133187E15,3.1088385E15,9.301003E15,0E0,0E0,0E0,0E0,0E0,0E0,0E0,0E0,0E0,0E0,0E0,0E0,0E0,0E0,0E0,0E0,0E0,0E0],"parents":[2147483647,0,0,1,1,2,2,3,3,4,4,5,5,6,6,7,7,9,9,10,10,13,13,14,14,15,15,16,16,17,17,18,18,19,19,20,20,23,23,25,25,26,26,27,27,28,28,32,32,34,34,35,35,36,36],"right_children":[2,4,6,8,10,12,14,16,-1,18,20,-1,-1,22,24,26,28,30,32,34,36,-1,-1,38,-1,40,42,44,46,-1,-1,-1,48,-1,50,52,54,-1,-1,-1,-1,-1,-1,-1,-1,-1,-1,-1,-1,-1,-1,-1,-1,-1,-1],"split_conditions":[5.9976765E6,7.19405E3,2.374835E4,7.14285E3,7.7217E3,6.0526095E6,1.324765E4,4.8796504E3,3.3212442E7,6.5092E3,5.8228E3,4.1187842E6,4.2200988E7,8.1290235E6,2.4476E4,6.42211E5,3.268941E6,2.1164315E6,2.1778985E6,2.4569245E6,1.9890305E6,-1.345536E6,-8.50898E6,2.406455E4,-5.0291715E6,3.672E3,2.61445E3,6.40519E5,3.332064E6,2.1065665E6,-6.176936E7,3.869837E6,2.2069815E6,4.5430452E7,2.525261E6,1.487065E4,3.663104E6,1.5046656E6,8.1763845E6,3.8144912E6,-4.2065635E6,-2.597755E6,-2.0728234E7,3.6348338E6,1.7763854E7,-2.5257524E7,-3.732941E6,-1.7514241E6,-1.00373E7,-6.7574785E6,1.4630785E7,-1.3954934E7,6.169088E5,2.4790012E7,-7.5680175E6],"split_indices":[0,1,1,1,1,0,2,1,0,5,4,0,0,0,1,6,0,0,0,0,6,0,0,1,0,1,5,6,0,0,0,0,0,0,0,1,0,0,0,0,0,0,0,0,0,0,0,0,0,0,0,0,0,0,0],"split_type":[0,0,0,0,0,0,0,0,0,0,0,0,0,0,0,0,0,0,0,0,0,0,0,0,0,0,0,0,0,0,0,0,0,0,0,0,0,0,0,0,0,0,0,0,0,0,0,0,0,0,0,0,0,0,0],"sum_hessian":[2E2,1.9E2,1E1,1.44E2,4.6E1,3E0,7E0,1.42E2,2E0,8E0,3.8E1,1E0,2E0,2E0,5E0,1.2E2,2.2E1,4E0,4E0,4E0,3.4E1,1E0,1E0,4E0,1E0,7.6E1,4.4E1,1.8E1,4E0,1E0,3E0,1E0,3E0,2E0,2E0,2.2E1,1.2E1,2E0,2E0,5.9E1,1.7E1,3.7E1,7E0,7E0,1.1E1,1E0,3E0,1E0,2E0,1E0,1E0,1.4E1,8E0,4E0,8E0],"tree_param":{"num_deleted":"0","num_feature":"8","num_nodes":"55","size_leaf_vector":"0"}},{"base_weights":[2.7683772E5,-2.3044522E6,5.0356E6,-3.6436694E5,-2.5743046E7,2.3541632E7,1.6158961E6,-5.090693E6,2.2726295E6,-3.6807216E7,1.2342421E7,1.072107E7,3.6782092E7,-3.9052896E7,2.944591E6,-1.1732444E4,-2.4840904E7,1.9628E7,-5.271054E5,2.0625706E6,-5.0107572E7,1.9600896E7,-1.087264E6,1.4249525E7,-5.224832E6,5.1112404E7,1.0191083E7,1.2508016E7,-1.7923138E6,-9.096478E6,5.5186225E6,-1.00992E7,-4.074323E7,-7.1750505E6,2.6381462E7,-3.6735744E7,1.1020441E6,-9.916304E6,1.301016E7,-8.295424E6,-6.893979E7,-3.687904E6,1.8574592E7,1.1721371E6,3.3392914E7,-3.1087968E7,3.1400818E6,-1.0524666E6,-3.8240364E7,3.0672986E7,-1.3914004E6,-1.6632768E7,1.978624E6,-9.394896E6,-1.36768E6,1.1632907E7,4.190893E7,1.5483383E7,-5.663397E5,-1.5149824E7,2.706688E6,4.778272E6,2.0829104E7,-4.806256E6,2.4694998E7,4.0797972E7,-5.51872E6,-5.673664E6,-3.5036096E7,2.6839884E7,-6.6114E5],"categories":[],"categories_nodes":[],"categories_segments":[],"categories_sizes":[],"default_left":[1,1,1,1,1,1,1,1,1,1,1,1,1,0,1,1,1,1,1,1,1,0,0,1,0,0,0,1,1,1,1,1,0,1,1,0,1,0,0,1,0,0,1,1,1,1,1,0,0,0,0,0,0,0,0,0,0,0,0,0,0,0,0,0,0,0,0,0,0,0,0],"id":14,"left_children":[1,3,5,7,9,11,13,15,17,19,21,23,25,-1,27,29,31,33,35,37,39,-1,-1,41,-1,-1,-1,43,45,47,49,51,-1,53,55,-1,57,-1,-1,59,-1,-1,61,63,65,67,69,-1,-1,-1,-1,-1,-1,-1,-1,-1,-1,-1,-1,-1,-1,-1,-1,-1,-1,-1,-1,-1,-1,-1,-1],"loss_changes":[2.4806373E15,5.9475655E15,4.4552055E15,1.5320924E15,4.668131E15,1.4729075E15,3.411216E15,4.4133723E15,3.8489905E15,4.2392068E15,3.1374847E14,4.6830236E14,1.3843973E15,0E0,2.74048E15,1.8589073E15,1.6983723E15,2.1804354E15,4.1107454E15,5.2243207E14,4.1526074E15,0E0,0E0,5.339847E14,0E0,0E0,0E0,4.6958327E15,6.022027E15,3.2418252E15,4.040475E15,5.0637772E14,0E0,2.5825185E13,1.5735461E15,0E0,1.6163395E15,0E0,0E0,2.6724446E14,0E0,0E0,5.5992683E13,2.0874952E15,2.2421528E15,4.0325072E14,3.2609204E15,0E0,0E0,0E0,0E0,0E0,0E0,0E0,0E0,0E0,0E0,0E0,0E0,0E0,0E0,0E0,0E0,0E0,0E0,0E0,0E0,0E0,0E0,0E0,0E0],"parents":[2147483647,0,0,1,1,2,2,3,3,4,4,5,5,6,6,7,7,8,8,9,9,10,10,11,11,12,12,14,14,15,15,16,16,17,17,18,18,19,19,20,20,23,23,27,27,28,28,29,29,30,30,31,31,33,33,34,34,36,36,39,39,42,42,43,43,44,44,45,45,46,46],"right_children":[2,4,6,8,10,12,14,16,18,20,22,24,26,-1,28,30,32,34,36,38,40,-1,-1,42,-1,-1,-1,44,46,48,50,52,-1,54,56,-1,58,-1,-1,60,-1,-1,62,64,66,68,70,-1,-1,-1,-1,-1,-1,-1,-1,-1,-1,-1,-1,-1,-1,-1,-1,-1,-1,-1,-1,-1,-1,-1,-1],"split_conditions":[1.052724E6,2.116979E6,2.8867002E3,1.0961001E3,2.329333E6,2.4227998E3,1.933E3,1.2645E3,1.20445E3,1.2781001E3,2.347563E6,2.3743E6,2.64365E3,-2.3431738E7,2.946532E6,2.442075E5,2.4004E3,2.5548E3,3.971725E5,2.2800355E6,9.97489E5,1.1760538E7,-6.5235844E5,2.147E3,-3.1348992E6,3.0667444E7,6.11465E6,2.433809E6,3.258413E6,1.86297E5,3.316635E5,1.9583E3,-2.444594E7,1.092098E6,1.4252E3,-2.2041448E7,1.57675E3,-5.9497825E6,7.8060965E6,2.140989E6,-4.1363876E7,-2.2127425E6,2.0974165E6,4.6208E3,1.611965E6,7.13595E3,3.307446E6,-6.3148E5,-2.294422E7,1.8403792E7,-8.3484025E5,-9.979661E6,1.1871745E6,-5.636938E6,-8.2060806E5,6.9797445E6,2.5145358E7,9.29003E6,-3.398038E5,-9.089895E6,1.6240129E6,2.8669632E6,1.2497463E7,-2.8837538E6,1.4816999E7,2.4478784E7,-3.3112322E6,-3.4041985E6,-2.1021658E7,1.6103931E7,-3.9668403E5],"split_indices":[3,0,5,2,0,5,2,5,2,2,0,0,5,0,0,6,1,1,3,0,3,0,0,5,0,0,0,0,0,6,6,1,0,0,5,0,5,0,0,0,0,0,0,2,6,1,0,0,0,0,0,0,0,0,0,0,0,0,0,0,0,0,0,0,0,0,0,0,0,0,0],"split_type":[0,0,0,0,0,0,0,0,0,0,0,0,0,0,0,0,0,0,0,0,0,0,0,0,0,0,0,0,0,0,0,0,0,0,0,0,0,0,0,0,0,0,0,0,0,0,0,0,0,0,0,0,0,0,0,0,0,0,0,0,0,0,0,0,0,0,0,0,0,0,0],"sum_hessian":[2E2,1.3E2,7E1,1.21E2,9E0,1E1,6E1,4.3E1,7.8E1,7E0,2E0,6E0,4E0,1E0,5.9E1,3.5E1,8E0,1E1,6.8E1,2E0,5E0,1E0,1E0,5E0,1E0,2E0,2E0,1.9E1,4E1,1.3E1,2.2E1,5E0,3E0,2E0,8E0,2E0,6.6E1,1E0,1E0,2E0,3E0,1E0,4E0,1.3E1,6E0,5E0,3.5E1,1.1E1,2E0,4E0,1.8E1,3E0,2E0,1E0,1E0,5E0,3E0,6E0,6E1,1E0,1E0,1E0,3E0,1.1E1,2E0,5E0,1E0,1E0,4E0,4E0,3.1E1],"tree_param":{"num_deleted":"0","num_feature":"8","num_nodes":"71","size_leaf_vector":"0"}},{"base_weights":[3.719164E4,-5.417427E5,1.8942848E7,1.2908135E7,-1.1827382E6,3.948595E7,-1.200192E6,3.2818808E7,-2.5170028E6,-1.5022717E7,-3.2081403E5,-8.880384E6,4.32E6,5.038272E6,4.0399564E7,-1.2325424E7,1.1399893E7,-6.645805E6,-1.8860124E7,5.400429E7,-9.328445E5,-4.578304E6,-1.7783392E7,-1.1880792E7,7.147072E6,-3.260896E6,-2.0916512E7,-2.0367478E7,-1.3181942E5,-2.913856E6,-1.3898485E7,-2.9147866E7,1.0556586E6,1.4006498E7,-1.6816231E6],"categories":[],"categories_nodes":[],"categories_segments":[],"categories_sizes":[],"default_left":[1,1,1,1,1,0,1,1,1,1,1,0,0,0,0,1,0,1,1,0,1,0,0,1,0,0,0,1,1,0,0,0,0,0,0],"id":15,"left_children":[1,3,5,7,9,-1,11,13,15,17,19,-1,-1,-1,-1,21,-1,23,25,-1,27,-1,-1,29,-1,-1,-1,31,33,-1,-1,-1,-1,-1,-1],"loss_changes":[2.2102339E15,1.705044E15,2.5301942E15,2.846729E15,2.2378347E15,0E0,2.0794779E14,6.3884525E14,9.595252E14,2.2826114E14,5.968631E15,0E0,0E0,0E0,0E0,8.7716386E13,0E0,4.4594055E14,1.5633976E14,0E0,2.7527855E15,0E0,0E0,3.1871946E13,0E0,0E0,0E0,1.3474942E15,3.77044E15,0E0,0E0,0E0,0E0,0E0,0E0],"parents":[2147483647,0,0,1,1,2,2,3,3,4,4,6,6,7,7,8,8,9,9,10,10,15,15,17,17,18,18,20,20,23,23,27,27,28,28],"right_children":[2,4,6,8,10,-1,12,14,16,18,20,-1,-1,-1,-1,22,-1,24,26,-1,28,-1,-1,30,-1,-1,-1,32,34,-1,-1,-1,-1,-1,-1],"split_conditions":[7.1504665E6,3.828485E5,7.341629E6,8.666645E5,9.261E2,2.3691572E7,7.698158E6,1.7491499E3,8.798465E5,8.1665E2,7.8965E2,-5.3282305E6,2.592E6,3.0229632E6,2.423974E7,3.3193E3,6.839936E6,8.018E2,8.187755E5,3.2402574E7,3.96722E5,-2.7469825E6,-1.0670036E7,8.39599E5,4.2882435E6,-1.9565376E6,-1.2549908E7,3.971485E5,2.1596E5,-1.7483136E6,-8.3390915E6,-1.748872E7,6.333952E5,8.403899E6,-1.00897394E6],"split_indices":[6,3,6,0,5,0,6,1,0,5,2,0,0,0,0,7,0,5,0,0,3,0,0,0,0,0,0,6,6,0,0,0,0,0,0],"split_type":[0,0,0,0,0,0,0,0,0,0,0,0,0,0,0,0,0,0,0,0,0,0,0,0,0,0,0,0,0,0,0,0,0,0,0],"sum_hessian":[2E2,1.95E2,5E0,8E0,1.87E2,2E0,3E0,3E0,5E0,1E1,1.77E2,1E0,2E0,1E0,2E0,3E0,2E0,4E0,6E0,1E0,1.76E2,2E0,1E0,3E0,1E0,1E0,5E0,6E0,1.7E2,1E0,2E0,4E0,2E0,1.6E1,1.54E2],"tree_param":{"num_deleted":"0","num_feature":"8","num_nodes":"35","size_leaf_vector":"0"}},{"base_weights":[2.3517595E5,-3.613274E5,1.0571264E7,8.9196975E5,-7.117088E6,2.8032128E7,5.19424E5,-6.0454356E5,3.4115416E7,-2.4094848E7,-9.0234156E5,3.707648E6,3.4904404E7,-4.2727425E6,6.379776E6,7.3792825E5,-1.1624632E7,1.1702061E7,6.00992E7,-3.3730376E7,2.1676928E7,9.814056E6,-6.204144E6,2.4710828E6,-9.59232E6,1.02272E6,7.8245545E6,-1.2603582E6,1.0448828E7,-3.39264E7,-6.3893035E6,3.132048E6,1.3061552E7,-9.696E4,-3.9319788E7,4.2749825E6,1.4284384E7,-1.8806848E7,-1.8491471E6,-8.66944E5,4.573568E6,1.2315618E5,-2.3018894E7,-6.3434695E6,1.6398676E7,1.8689002E7,-1.168512E7,-4.4165196E7,-7.546368E6,-1.36192E5,5.411824E6,-5.830016E6,8.565312E6],"categories":[],"categories_nodes":[],"categories_segments":[],"categories_sizes":[],"default_left":[1,1,1,1,1,1,1,1,1,1,1,0,0,1,1,1,1,1,0,1,0,1,1,1,0,0,0,1,1,0,1,0,0,0,1,1,0,0,1,0,0,0,0,0,0,0,0,0,0,0,0,0,0],"id":16,"left_children":[1,3,5,7,9,11,13,15,17,19,21,-1,-1,23,25,27,29,31,-1,33,-1,35,37,39,-1,-1,-1,41,43,-1,45,-1,-1,-1,47,49,-1,-1,51,-1,-1,-1,-1,-1,-1,-1,-1,-1,-1,-1,-1,-1,-1],"loss_changes":[1.2430874E15,1.6235406E15,1.9160913E15,8.0751554E15,3.1436323E15,5.3924522E14,2.5192941E14,2.316467E15,3.373402E15,4.2594533E15,1.3676609E15,0E0,0E0,2.0307491E14,2.2956718E13,2.7298917E15,1.7681046E15,1.734489E13,0E0,1.3121249E15,0E0,1.370263E14,8.433791E14,2.5019485E13,0E0,0E0,0E0,3.524915E15,2.5019035E15,0E0,2.2105348E15,0E0,0E0,0E0,5.904442E14,2.5811076E13,0E0,0E0,5.8889766E14,0E0,0E0,0E0,0E0,0E0,0E0,0E0,0E0,0E0,0E0,0E0,0E0,0E0,0E0],"parents":[2147483647,0,0,1,1,2,2,3,3,4,4,5,5,6,6,7,7,8,8,9,9,10,10,13,13,14,14,15,15,16,16,17,17,19,19,21,21,22,22,23,23,27,27,28,28,30,30,34,34,35,35,38,38],"right_children":[2,4,6,8,10,12,14,16,18,20,22,-1,-1,24,26,28,30,32,-1,34,-1,36,38,40,-1,-1,-1,42,44,-1,46,-1,-1,-1,48,50,-1,-1,52,-1,-1,-1,-1,-1,-1,-1,-1,-1,-1,-1,-1,-1,-1],"split_conditions":[5.9976765E6,4.2806E3,2.374835E4,4.0204502E3,4.456E3,6.0526095E6,8.175485E6,7.2278E3,2.302336E6,5.7855845E6,3.248205E6,2.224589E6,2.0942644E7,8.1235325E6,8.2168605E6,1.0384E6,7.7217E3,8.062E3,3.605952E7,4.69485E3,1.3006157E7,8.02835E3,8.83291E5,8.1093545E6,-5.755392E6,6.13632E5,4.694733E6,9.970975E5,4.0082002E3,-2.035584E7,7.8457E3,1.8792289E6,7.8369315E6,-5.8176004E4,4.7184045E6,1.11529E4,8.570631E6,-1.1284109E7,7.12175E3,-5.201664E5,2.744141E6,7.389371E4,-1.3811337E7,-3.8060818E6,9.839206E6,1.1213402E7,-7.0110725E6,-2.6499118E7,-4.527821E6,-8.17152E4,3.2470945E6,-3.4980098E6,5.1391875E6],"split_indices":[0,2,1,2,2,0,0,1,0,0,0,0,0,0,0,3,1,7,0,4,0,5,6,0,0,0,0,3,4,0,1,0,0,0,0,1,0,0,2,0,0,0,0,0,0,0,0,0,0,0,0,0,0],"split_type":[0,0,0,0,0,0,0,0,0,0,0,0,0,0,0,0,0,0,0,0,0,0,0,0,0,0,0,0,0,0,0,0,0,0,0,0,0,0,0,0,0,0,0,0,0,0,0,0,0,0,0,0,0],"sum_hessian":[2E2,1.9E2,1E1,1.61E2,2.9E1,3E0,7E0,1.55E2,6E0,7E0,2.2E1,1E0,2E0,4E0,3E0,1.39E2,1.6E1,4E0,2E0,6E0,1E0,7E0,1.5E1,2E0,2E0,1E0,2E0,1.16E2,2.3E1,2E0,1.4E1,1E0,3E0,1E0,5E0,4E0,3E0,3E0,1.2E1,1E0,1E0,1.1E2,6E0,6E0,1.7E1,2E0,1.2E1,4E0,1E0,1E0,3E0,9E0,3E0],"tree_param":{"num_deleted":"0","num_feature":"8","num_nodes":"53","size_leaf_vector":"0"}},{"base_weights":[2.4768239E5,-2.6717378E6,1.8978374E6,-7.535981E5,-2.3965366E7,1.4602167E7,2.2424794E5,-1.5771491E6,2.721216E7,-4.89792E5,-2.8562522E7,3.795292E7,2.6607185E6,-3.4223184E7,1.4525111E6,1.5425094E6,-6.879876E6,-1.5917072E7,1.1617024E7,-8.510976E6,-3.995693E7,8.855606E6,-1.3639332E6,-3.662203E5,1.6122099E7,-8.3479105E6,1.417648E7,4.68736E5,-2.1535254E7,1.3857938E7,-2.034688E6,-3.87424E5,1.754516E7,-3.6292064E7,-4.846716E5,-6.243542E6,3.5672532E6,2.462991E7,2.240256E6,-9.677096E6,1.111168E7,7.2704E5,1.5925248E7,1.7077674E7,-9.878621E6,2.1564192E7,4.390451E6,-2.7960838E6,5.84121E6],"categories":[],"categories_nodes":[],"categories_segments":[],"categories_sizes":[],"default_left":[1,1,1,1,1,1,1,1,0,0,0,0,1,1,1,1,1,1,1,0,0,1,1,1,1,1,0,0,0,1,0,1,1,0,1,0,0,0,0,0,0,0,0,0,0,0,0,0,0],"id":17,"left_children":[1,3,5,7,9,11,13,15,-1,-1,-1,-1,17,19,21,23,25,27,29,-1,-1,31,33,35,37,39,-1,-1,-1,41,-1,43,45,-1,47,-1,-1,-1,-1,-1,-1,-1,-1,-1,-1,-1,-1,-1,-1],"loss_changes":[9.733872E14,2.963563E15,2.739502E15,1.609041E15,6.335353E14,4.0816454E15,4.9154183E15,1.1189729E15,0E0,0E0,0E0,0E0,2.015181E15,2.4963692E14,2.3473236E15,1.2025296E15,8.9113055E14,3.783281E14,2.7293504E14,0E0,0E0,2.4966497E15,2.5007095E15,9.238856E14,5.3534325E14,7.282987E14,0E0,0E0,0E0,1.7844126E14,0E0,2.8209394E15,7.5123005E14,0E0,1.2006918E15,0E0,0E0,0E0,0E0,0E0,0E0,0E0,0E0,0E0,0E0,0E0,0E0,0E0,0E0],"parents":[2147483647,0,0,1,1,2,2,3,3,4,4,5,5,6,6,7,7,12,12,13,13,14,14,15,15,16,16,17,17,18,18,21,21,22,22,23,23,24,24,25,25,29,29,31,31,32,32,34,34],"right_children":[2,4,6,8,10,12,14,16,-1,-1,-1,-1,18,20,22,24,26,28,30,-1,-1,32,34,36,38,40,-1,-1,-1,42,-1,44,46,-1,48,-1,-1,-1,-1,-1,-1,-1,-1,-1,-1,-1,-1,-1,-1],"split_conditions":[1.8117E3,1.68565E3,3.51575E3,1.66765E3,2.4307E3,4.294735E5,3.5373E3,5.481215E5,1.6327297E7,-2.9387522E5,-1.7137514E7,2.2771752E7,1.34745E3,3.51795E3,4.3695E3,7.51041E5,4.8815E3,2.289001E6,2.37415E3,-5.106586E6,-2.3974158E7,3.97485E3,4.6309E3,9.57E2,1.90075E3,1.878129E6,8.505888E6,2.8124162E5,-1.2921153E7,4.126E3,-1.2208129E6,3.4159E3,8.5494E3,-2.177524E7,3.6142135E6,-3.7461252E6,2.140352E6,1.4777947E7,1.3441536E6,-5.806258E6,6.6670085E6,4.3622403E5,9.555149E6,1.0246605E7,-5.927173E6,1.2938516E7,2.6342708E6,-1.6776504E6,3.5047262E6],"split_indices":[5,5,1,5,1,6,1,3,0,0,0,0,2,1,4,6,1,0,2,0,0,4,7,5,1,6,0,0,0,7,0,4,7,0,0,0,0,0,0,0,0,0,0,0,0,0,0,0,0],"split_type":[0,0,0,0,0,0,0,0,0,0,0,0,0,0,0,0,0,0,0,0,0,0,0,0,0,0,0,0,0,0,0,0,0,0,0,0,0,0,0,0,0,0,0,0,0,0,0,0,0],"sum_hessian":[2E2,7.2E1,1.28E2,6.7E1,5E0,1.4E1,1.14E2,6.6E1,1E0,1E0,4E0,4E0,1E1,3E0,1.11E2,4.2E1,2.4E1,3E0,7E0,1E0,2E0,3E1,8.1E1,3.8E1,4E0,2.3E1,1E0,1E0,2E0,6E0,1E0,1.5E1,1.5E1,1E0,8E1,1.5E1,2.3E1,2E0,2E0,2.2E1,1E0,1E0,5E0,5E0,1E1,1.1E1,4E0,5.9E1,2.1E1],"tree_param":{"num_deleted":"0","num_feature":"8","num_nodes":"49","size_leaf_vector":"0"}},{"base_weights":[1.6149094E5,9.381824E6,-1.2158808E5,-1.090512E6,2.0217664E7,-9.078864E6,4.6008166E5,5.36288E6,-5.0292695E6,-1.266672E6,-1.1542187E7,2.9023318E7,-1.06822295E4,-6.226144E6,-1.31776E6,8.46144E5,-3.80256E6,-1.4198071E7,-1.497728E6,6.83904E6,3.6695936E7,-7.22288E6,6.762573E5,1.400736E6,-1.3152E5,-1.675584E6,-1.6005888E7,-1.903744E6,-3.42848E5,-2.182464E6,-2.1798512E7,1.1626912E7,5.60564E4,1.7094976E6,-1.1366752E7,-5.71704E5,1.7821504E7,-2.2978474E7,4.9306612E5],"categories":[],"categories_nodes":[],"categories_segments":[],"categories_sizes":[],"default_left":[1,1,1,1,0,1,1,0,1,1,1,1,1,0,0,1,0,1,1,0,0,1,1,0,0,0,0,0,0,1,0,1,1,0,0,0,0,0,0],"id":18,"left_children":[1,3,5,7,-1,9,11,-1,13,15,17,19,21,-1,-1,23,-1,25,27,-1,-1,29,31,-1,-1,-1,-1,-1,-1,33,-1,35,37,-1,-1,-1,-1,-1,-1],"loss_changes":[5.2576738E14,7.0290697E14,1.0253715E15,1.2864475E14,0E0,2.163073E14,2.48792E15,0E0,5.1220673E12,2.464897E13,2.1882738E14,2.5966943E14,9.115295E14,0E0,0E0,1.8108388E12,0E0,1.3164934E14,7.5400426E11,0E0,0E0,1.1279015E15,1.1403381E15,0E0,0E0,0E0,0E0,0E0,0E0,4.841151E14,0E0,6.9027775E14,1.62194E15,0E0,0E0,0E0,0E0,0E0,0E0],"parents":[2147483647,0,0,1,1,2,2,3,3,5,5,6,6,8,8,9,9,10,10,11,11,12,12,15,15,17,17,18,18,21,21,22,22,29,29,31,31,32,32],"right_children":[2,4,6,8,-1,10,12,-1,14,16,18,20,22,-1,-1,24,-1,26,28,-1,-1,30,32,-1,-1,-1,-1,-1,-1,34,-1,36,38,-1,-1,-1,-1,-1,-1],"split_conditions":[1.78145E3,1.76785E3,1.98425E3,8.65184E5,1.2130599E7,1.84515E3,7.8675E2,3.2177282E6,8.66303E5,1.126799E6,3.3493E3,8.376615E5,8.529345E5,-3.7356865E6,-7.9065606E5,1.108026E6,-2.281536E6,3.74243E5,1.000725E6,4.1034242E6,2.2017562E7,8.416195E5,8.82591E5,8.404416E5,-7.8912E4,-1.00535044E6,-9.603533E6,-1.1422465E6,-2.0570881E5,4.68455E3,-1.3079108E7,8.7765E2,8.923135E5,1.0256986E6,-6.8200515E6,-3.430224E5,1.0692903E7,-1.3787085E7,2.958397E5],"split_indices":[1,1,1,0,0,1,2,0,0,0,7,0,0,0,0,0,0,3,0,0,0,0,0,0,0,0,0,0,0,4,0,2,0,0,0,0,0,0,0],"split_type":[0,0,0,0,0,0,0,0,0,0,0,0,0,0,0,0,0,0,0,0,0,0,0,0,0,0,0,0,0,0,0,0,0,0,0,0,0,0,0],"sum_hessian":[2E2,5E0,1.95E2,3E0,2E0,1.1E1,1.84E2,1E0,2E0,3E0,8E0,2E0,1.82E2,1E0,1E0,2E0,1E0,6E0,2E0,1E0,1E0,1.5E1,1.67E2,1E0,1E0,1E0,5E0,1E0,1E0,1.2E1,3E0,8E0,1.59E2,9E0,3E0,3E0,5E0,2E0,1.57E2],"tree_param":{"num_deleted":"0","num_feature":"8","num_nodes":"39","size_leaf_vector":"0"}},{"base_weights":[7.181883E4,-2.5064068E6,9.6512494E5,2.4599212E6,-7.195967E6,2.3369258E6,-2.0908841E6,-1.271166E6,7.663328E6,9.998128E6,-9.761817E6,1.670881E6,2.4203478E7,-1.9941082E7,3.334549E4,-2.7276865E6,1.028832E7,1.7183302E7,-2.3141486E5,-3.7939412E6,2.5687168E7,-1.4215548E7,9.22588E5,2.8401755E6,-3.5865735E6,-7.02208E5,-2.4575248E7,1.7084234E7,-3.1933992E6,2.2372445E6,-8.721499E6,2.0779178E7,7.8596585E6,-4.565904E6,4.160928E6,-7.7324035E6,-2.8228614E7,3.4969098E6,-8.548832E6,1.1445019E6,8.580928E6,-6.3896094E5,-1.9094186E7,-7.587264E6,-2.7708822E7,3.2932182E7,4.1586175E6,-1.3514624E7,6.068023E5,-2.796256E6,6.823296E6,7.008E5,7.270656E6,-9.639832E6,7.578368E6,-1.294976E6,5.672659E6,3.7955168E6,-2.3687072E6,3.243279E7,3.8670155E6,-2.505856E6,8.908501E6,-5.265472E6,7.831008E6,-1.8416E7,4.0605868E6,2.0323968E7,-8.762027E5],"categories":[],"categories_nodes":[],"categories_segments":[],"categories_sizes":[],"default_left":[1,1,1,1,1,1,1,1,1,1,1,1,0,1,1,1,0,1,1,0,0,1,1,1,1,0,1,1,1,1,0,0,0,0,1,1,0,1,0,1,1,1,0,0,0,0,1,1,1,0,0,0,0,0,0,0,0,0,0,0,0,0,0,0,0,0,0,0,0],"id":19,"left_children":[1,3,5,7,9,11,13,15,17,19,21,23,-1,25,27,29,-1,31,33,-1,-1,35,37,39,41,-1,43,45,47,49,-1,-1,-1,-1,51,53,-1,55,-1,57,59,61,-1,-1,-1,-1,63,65,67,-1,-1,-1,-1,-1,-1,-1,-1,-1,-1,-1,-1,-1,-1,-1,-1,-1,-1,-1,-1],"loss_changes":[4.6535108E14,1.2287759E15,6.337217E14,5.1451484E14,1.2887716E15,1.4742258E15,1.7828071E15,2.9744937E14,8.307117E14,9.6299294E14,1.1551664E15,6.372328E14,0E0,4.2852365E14,2.4203682E15,4.6589513E14,0E0,4.3161737E12,1.5226833E14,0E0,0E0,1.3261533E15,2.2495433E14,8.0787234E14,8.562978E14,0E0,2.6983132E12,1.2969589E15,1.4594417E15,2.2683474E14,0E0,0E0,0E0,0E0,3.7944954E13,4.5270868E14,0E0,8.032756E13,0E0,6.23686E14,2.010858E15,3.253333E14,0E0,0E0,0E0,0E0,2.1427864E14,9.362072E14,8.365462E14,0E0,0E0,0E0,0E0,0E0,0E0,0E0,0E0,0E0,0E0,0E0,0E0,0E0,0E0,0E0,0E0,0E0,0E0,0E0,0E0],"parents":[2147483647,0,0,1,1,2,2,3,3,4,4,5,5,6,6,7,7,8,8,9,9,10,10,11,11,13,13,14,14,15,15,17,17,18,18,21,21,22,22,23,23,24,24,26,26,27,27,28,28,29,29,34,34,35,35,37,37,39,39,40,40,41,41,46,46,47,47,48,48],"right_children":[2,4,6,8,10,12,14,16,18,20,22,24,-1,26,28,30,-1,32,34,-1,-1,36,38,40,42,-1,44,46,48,50,-1,-1,-1,-1,52,54,-1,56,-1,58,60,62,-1,-1,-1,-1,64,66,68,-1,-1,-1,-1,-1,-1,-1,-1,-1,-1,-1,-1,-1,-1,-1,-1,-1,-1,-1,-1],"split_conditions":[4.017325E5,2.1596E5,2.4569245E6,1.2828E3,2.15365E3,2.427884E6,3.91035E3,5.0605996E3,1.8765E3,1.9448E3,2.0057E3,1.111145E6,1.4522087E7,2.536435E6,5.5414E3,1.02465E3,6.172992E6,1.098826E6,1.0139755E6,-2.2763648E6,1.5412301E7,1.4211465E6,1.006695E4,7.8789E3,5.4307E3,-4.213248E5,3.2474502E3,9.0454E3,6.7003496E3,3.056E3,-5.2328995E6,1.2467507E7,4.7157955E6,-2.7395425E6,3.2784502E3,6.5130996E3,-1.693717E7,3.9646E3,-5.1292995E6,3.79625E3,5.50055E3,1.8117535E6,-1.1456512E7,-4.5523585E6,-1.6625294E7,1.975931E7,1.9890305E6,9.233551E3,4.06605E3,-1.6777536E6,4.0939778E6,4.2048003E5,4.362394E6,-5.7838995E6,4.547021E6,-7.769856E5,3.4035955E6,2.2773102E6,-1.4212244E6,1.9459674E7,2.3202095E6,-1.5035136E6,5.345101E6,-3.1592832E6,4.698605E6,-1.10496E7,2.4363522E6,1.2194381E7,-5.257216E5],"split_indices":[6,6,0,5,1,0,5,4,2,1,5,6,0,0,5,5,0,0,3,0,0,0,1,7,1,0,5,4,5,4,0,0,0,0,2,7,0,4,0,4,1,6,0,0,0,0,6,4,2,0,0,0,0,0,0,0,0,0,0,0,0,0,0,0,0,0,0,0,0],"split_type":[0,0,0,0,0,0,0,0,0,0,0,0,0,0,0,0,0,0,0,0,0,0,0,0,0,0,0,0,0,0,0,0,0,0,0,0,0,0,0,0,0,0,0,0,0,0,0,0,0,0,0,0,0,0,0,0,0,0,0,0,0,0,0,0,0,0,0,0,0],"sum_hessian":[2E2,5.1E1,1.49E2,2.5E1,2.6E1,1.03E2,4.6E1,1.5E1,1E1,3E0,2.3E1,1.01E2,2E0,4E0,4.2E1,1.4E1,1E0,4E0,6E0,2E0,1E0,1.6E1,7E0,8.3E1,1.8E1,1E0,3E0,6E0,3.6E1,8E0,6E0,2E0,2E0,3E0,3E0,1.2E1,4E0,6E0,1E0,6.5E1,1.8E1,1.6E1,2E0,1E0,2E0,2E0,4E0,9E0,2.7E1,4E0,4E0,2E0,1E0,1.1E1,1E0,2E0,4E0,3.7E1,2.8E1,2E0,1.6E1,1.4E1,2E0,1E0,3E0,7E0,2E0,1E0,2.6E1],"tree_param":{"num_deleted":"0","num_feature":"8","num_nodes":"69","size_leaf_vector":"0"}},{"base_weights":[2.6426047E5,-2.4354639E4,7.230144E6,3.7051462E5,-5.550651E6,1.8287909E6,2.2519808E7,1.6859898E5,1.8458624E7,-1.824384E7,8.16896E4,1.1739563E7,-4.4834305E6,3.313248E5,-1.4561024E7,7.631232E6,-4.2440045E6,-6.083264E6,9.57952E5,5.4662475E5,-9.278528E6,1.56416E6,-5.4727255E6,3.4190947E5,1.8288256E7,-1.1664384E7,-1.06048E6,-7.93856E6,-2.255168E6],"categories":[],"categories_nodes":[],"categories_segments":[],"categories_sizes":[],"default_left":[1,1,1,1,1,1,0,1,0,0,1,0,1,1,0,0,1,0,0,1,1,0,1,0,0,0,0,0,0],"id":20,"left_children":[1,3,5,7,9,11,-1,13,-1,-1,15,-1,17,19,-1,-1,21,-1,-1,23,25,-1,27,-1,-1,-1,-1,-1,-1],"loss_changes":[4.0427836E14,4.2539658E14,6.1949494E14,6.6160146E14,9.3089094E14,4.905464E14,0E0,4.3866152E14,0E0,0E0,3.589571E14,0E0,4.9354006E13,3.77492E14,0E0,0E0,5.8516497E13,0E0,0E0,6.3660804E14,6.6058443E13,0E0,2.970099E13,0E0,0E0,0E0,0E0,0E0,0E0],"parents":[2147483647,0,0,1,1,2,2,3,3,4,4,5,5,7,7,10,10,12,12,13,13,16,16,19,19,20,20,22,22],"right_children":[2,4,6,8,10,12,-1,14,-1,-1,16,-1,18,20,-1,-1,22,-1,-1,24,26,-1,28,-1,-1,-1,-1,-1,-1],"split_conditions":[5.839153E6,1.747508E6,6.0526095E6,3.6478005E6,9.8881E3,4.5015996E3,1.3511885E7,3.1759065E6,1.1075175E7,-1.0946304E7,4.4812255E6,7.043738E6,5.9976765E6,7.63375E3,-8.736615E6,4.5787395E6,3.783571E6,-3.6499585E6,5.7477125E5,7.3007E3,2.33968E4,9.3849606E5,3.793672E6,2.0514569E5,1.0972954E7,-6.9986305E6,-6.36288E5,-4.763136E6,-1.3531009E6],"split_indices":[6,3,0,0,1,2,0,6,0,0,6,0,0,2,0,0,3,0,0,2,7,0,3,0,0,0,0,0,0],"split_type":[0,0,0,0,0,0,0,0,0,0,0,0,0,0,0,0,0,0,0,0,0,0,0,0,0,0,0,0,0],"sum_hessian":[2E2,1.93E2,7E0,1.81E2,1.2E1,6E0,1E0,1.8E2,1E0,3E0,9E0,2E0,4E0,1.79E2,1E0,3E0,6E0,3E0,1E0,1.76E2,3E0,1E0,5E0,1.75E2,1E0,2E0,1E0,2E0,3E0],"tree_param":{"num_deleted":"0","num_feature":"8","num_nodes":"29","size_leaf_vector":"0"}},{"base_weights":[1.6449194E5,-2.7982172E6,5.6303425E5,-4.94985E6,9.197408E6,1.023984E7,2.2416795E5,-3.2984368E6,-1.8989056E7,4.09152E5,1.1990443E7,2.32768E5,1.5185184E7,-8.1581805E6,5.7418156E5,7.36576E6,-4.247382E6,2.5128E6,-2.163648E6,6.40448E5,1.9819946E7,1.785312E6,-1.6062128E7,6.397248E6,2.0199898E5,-5.2947895E6,7.302976E6,-3.322688E6,4.5955415E6,-1.984128E6,1.517545E7,-1.0975704E7,4.8915262E5,3.990016E6,-6.704766E6,3.036064E6,-8.0163415E6,1.8486016E7,9.66592E5,-3.2952E6,-1.2437472E7,-3.1294188E6,9.575956E5],"categories":[],"categories_nodes":[],"categories_segments":[],"categories_sizes":[],"default_left":[1,1,1,1,1,1,1,1,0,0,0,1,1,1,1,0,1,0,0,0,0,1,0,1,1,1,0,0,0,1,1,1,1,0,0,0,0,0,0,0,0,0,0],"id":21,"left_children":[1,3,5,7,9,11,13,15,-1,-1,-1,17,19,21,23,-1,25,-1,-1,-1,-1,27,-1,29,31,33,-1,-1,-1,35,37,39,41,-1,-1,-1,-1,-1,-1,-1,-1,-1,-1],"loss_changes":[2.3890925E14,6.649701E14,5.813921E14,4.2424093E14,9.32777E13,2.9339586E14,5.122552E14,2.3367993E14,0E0,0E0,0E0,2.1828532E13,2.5695192E14,5.7882576E14,3.6063747E14,0E0,2.6852837E14,0E0,0E0,0E0,0E0,7.268816E13,0E0,7.658441E14,5.1250425E14,2.6239663E14,0E0,0E0,0E0,2.0603532E14,2.1732843E14,3.9244928E12,2.6573632E14,0E0,0E0,0E0,0E0,0E0,0E0,0E0,0E0,0E0,0E0],"parents":[2147483647,0,0,1,1,2,2,3,3,4,4,5,5,6,6,7,7,11,11,12,12,13,13,14,14,16,16,21,21,23,23,24,24,25,25,29,29,30,30,31,31,32,32],"right_children":[2,4,6,8,10,12,14,16,-1,-1,-1,18,20,22,24,-1,26,-1,-1,-1,-1,28,-1,30,32,34,-1,-1,-1,36,38,40,42,-1,-1,-1,-1,-1,-1,-1,-1,-1,-1],"split_conditions":[2.3694E3,1.1538805E6,2.4507002E3,2.3462998E3,1.98545E3,1.76785E3,2.5884502E3,1.85514E5,-1.1393434E7,2.454912E5,7.194266E6,8.66097E5,8.58894E5,2.55415E3,2.37885E3,4.419456E6,2.32385E3,1.50768E6,-1.2981889E6,3.842688E5,1.1891968E7,9.608715E5,-9.637277E6,9.9585E2,2.52055E3,3.734695E5,4.381786E6,-1.9936129E6,2.757325E6,3.962685E5,3.1333E3,2.4315E3,4.3184E5,2.3940098E6,-4.0228598E6,1.8216385E6,-4.809805E6,1.109161E7,5.7995525E5,-1.9771201E6,-7.4624835E6,-1.8776514E6,5.745574E5],"split_indices":[4,0,4,4,1,1,4,6,0,0,0,0,0,4,1,0,4,0,0,0,0,0,0,5,1,3,0,0,0,3,4,1,3,0,0,0,0,0,0,0,0,0,0],"split_type":[0,0,0,0,0,0,0,0,0,0,0,0,0,0,0,0,0,0,0,0,0,0,0,0,0,0,0,0,0,0,0,0,0,0,0,0,0,0,0,0,0,0,0],"sum_hessian":[2E2,2.3E1,1.77E2,2E1,3E0,5E0,1.72E2,1.9E1,1E0,1E0,2E0,2E0,3E0,6E0,1.66E2,1E0,1.8E1,1E0,1E0,1E0,2E0,3E0,3E0,9E0,1.57E2,1.7E1,1E0,1E0,2E0,5E0,4E0,3E0,1.54E2,2E0,1.5E1,3E0,2E0,3E0,1E0,1E0,2E0,1.7E1,1.37E2],"tree_param":{"num_deleted":"0","num_feature":"8","num_nodes":"43","size_leaf_vector":"0"}},{"base_weights":[8.954603E4,1.110145E6,-8.541458E5,4.5586962E5,1.620808E7,-1.6523344E7,-2.3129348E5,-2.837656E5,5.5336905E6,1.9637824E7,2.959424E6,-1.1893739E7,1.208928E5,7.9342556E5,-6.1450585E6,1.815313E7,1.1944896E6,-3.6496E6,-1.4191008E7,6.7348865E6,-2.2484533E5,-5.8749175E5,7.6318935E6,-1.6779784E7,-1.2766624E6,-3.81828E6,3.888288E6,9.947232E6,-3.057248E6,-1.2161067E7,1.5848988E5,1.6705756E6,-5.9491255E6,8.856087E6,-2.91712E6,-7.887296E6,6.9114305E6,-3.634784E6,5.7479305E6,1.2154773E7,-2.34416E5],"categories":[],"categories_nodes":[],"categories_segments":[],"categories_sizes":[],"default_left":[1,1,1,1,1,0,1,1,1,0,0,1,1,1,1,0,1,0,0,1,1,1,1,0,1,0,1,0,0,0,1,0,0,0,0,0,0,0,0,0,0],"id":22,"left_children":[1,3,5,7,9,-1,11,13,15,-1,-1,17,19,21,23,-1,25,-1,-1,27,29,31,33,-1,35,-1,37,-1,-1,-1,39,-1,-1,-1,-1,-1,-1,-1,-1,-1,-1],"loss_changes":[1.9453752E14,9.507973E14,1.020936E15,3.5460938E14,1.236413E14,0E0,4.203879E14,5.2891546E14,6.3541585E14,0E0,0E0,5.0255144E12,2.3018527E14,6.7496216E14,6.516406E14,0E0,1.4988048E14,0E0,0E0,1.8768977E14,4.4118253E14,7.363542E14,1.8080276E14,0E0,5.957973E14,0E0,1.1882408E14,0E0,0E0,0E0,4.459098E14,0E0,0E0,0E0,0E0,0E0,0E0,0E0,0E0,0E0,0E0],"parents":[2147483647,0,0,1,1,2,2,3,3,4,4,6,6,7,7,8,8,11,11,12,12,13,13,14,14,16,16,19,19,20,20,21,21,22,22,24,24,26,26,30,30],"right_children":[2,4,6,8,10,-1,12,14,16,-1,-1,18,20,22,24,-1,26,-1,-1,28,30,32,34,-1,36,-1,38,-1,-1,-1,40,-1,-1,-1,-1,-1,-1,-1,-1,-1,-1],"split_conditions":[3.8808E3,1.07868E6,1.66715E3,4.5680996E3,1.88655E3,-9.914007E6,3.9177998E3,3.51575E3,4.68455E3,1.1782695E7,1.7756545E6,2.254558E6,1.75455E3,1.3493999E3,3.5373E3,1.0891878E7,4.76945E3,-2.18976E6,-8.514605E6,1.9192E3,1.77055E3,2.70875E3,2.347563E6,-1.0067871E7,4.389265E5,-2.290968E6,2.9592E3,5.9683395E6,-1.8343489E6,-7.2966405E6,2.0775E3,1.00234544E6,-3.5694755E6,5.3136525E6,-1.7502721E6,-4.732378E6,4.1468585E6,-2.1808705E6,3.4487585E6,7.292864E6,-1.4064961E5],"split_indices":[1,3,2,4,2,0,1,1,4,0,0,0,2,2,1,0,4,0,0,5,2,1,0,0,6,0,1,0,0,0,5,0,0,0,0,0,0,0,0,0,0],"split_type":[0,0,0,0,0,0,0,0,0,0,0,0,0,0,0,0,0,0,0,0,0,0,0,0,0,0,0,0,0,0,0,0,0,0,0,0,0,0,0,0,0],"sum_hessian":[2E2,9.6E1,1.04E2,9.3E1,3E0,3E0,1.01E2,8.2E1,1.1E1,2E0,1E0,2E0,9.9E1,7E1,1.2E1,2E0,9E0,1E0,1E0,4E0,9.5E1,5.9E1,1.1E1,3E0,9E0,3E0,6E0,3E0,1E0,2E0,9.3E1,4.2E1,1.7E1,1E1,1E0,5E0,4E0,1E0,5E0,2E0,9.1E1],"tree_param":{"num_deleted":"0","num_feature":"8","num_nodes":"41","size_leaf_vector":"0"}},{"base_weights":[2.1598727E4,-1.7133608E5,4.697568E6,3.338005E5,-2.6459055E6,9.266103E5,1.5547136E7,-1.8551283E5,1.1859383E7,-1.6397376E7,-1.8372414E5,6.7543895E6,-2.7553792E6,1.9136106E5,-8.23488E6,4.7369985E6,1.9776896E7,-1.8924368E7,-3.144704E6,1.810048E6,-2.776832E6,8.316544E6,1.81504E6,-5.474048E6,-7.072E5,-3.0096634E5,1.452905E7,-1.2441523E7,1.521152E6,1.744E6,6.1509975E6,-5.1976535E4,1.0516821E7,-6.15424E6,9.972663E5,2.628352E6,-2.695168E6,3.5901125E5,-4.731291E6,1.610528E7,4.112064E6,-1.842112E7,-2.314752E6,3.6992E5,1.911808E6,2.398784E6,-7.391264E6,1.2584832E7,3.1904E6,-6.585088E6,-1.784576E6,3.8121812E6,-8.91136E5,-4.496384E6,4.53632E5],"categories":[],"categories_nodes":[],"categories_segments":[],"categories_sizes":[],"default_left":[1,1,1,1,1,1,0,1,1,1,1,1,1,1,1,1,0,0,0,1,1,0,0,0,1,1,1,1,1,0,0,1,1,1,1,0,1,0,0,0,0,0,0,0,0,0,0,0,0,0,0,0,0,0,0],"id":23,"left_children":[1,3,5,7,9,11,-1,13,15,17,19,21,23,25,27,29,-1,-1,-1,31,33,-1,-1,-1,35,37,39,41,43,-1,-1,45,47,49,51,-1,53,-1,-1,-1,-1,-1,-1,-1,-1,-1,-1,-1,-1,-1,-1,-1,-1,-1,-1],"loss_changes":[1.8213847E14,2.4338234E14,3.1289998E14,9.71833E14,1.1143215E15,1.6881565E14,0E0,4.7481686E14,3.0105795E14,1.07935615E14,1.549581E14,8.053223E12,2.397036E13,1.06319835E15,3.0620654E14,1.0433147E13,0E0,0E0,0E0,2.7615447E14,1.7184412E14,0E0,0E0,0E0,3.3607733E13,4.285902E14,1.5871917E13,2.6012973E14,6.419912E11,0E0,0E0,2.875326E14,5.3027076E12,1.4270364E12,4.0607016E13,0E0,1.9054706E13,0E0,0E0,0E0,0E0,0E0,0E0,0E0,0E0,0E0,0E0,0E0,0E0,0E0,0E0,0E0,0E0,0E0,0E0],"parents":[2147483647,0,0,1,1,2,2,3,3,4,4,5,5,7,7,8,8,9,9,10,10,11,11,12,12,13,13,14,14,15,15,19,19,20,20,24,24,25,25,26,26,27,27,28,28,31,31,32,32,33,33,34,34,36,36],"right_children":[2,4,6,8,10,12,-1,14,16,18,20,22,24,26,28,30,-1,-1,-1,32,34,-1,-1,-1,36,38,40,42,44,-1,-1,46,48,50,52,-1,54,-1,-1,-1,-1,-1,-1,-1,-1,-1,-1,-1,-1,-1,-1,-1,-1,-1,-1],"split_conditions":[5.839153E6,4.2806E3,6.0526095E6,4.0204502E3,4.4095E3,4.5015996E3,9.328282E6,3.82085E3,2.302336E6,4.7184045E6,1.046795E4,5.842513E6,5.8767175E6,4.4770996E3,7.9548E3,7.7334E3,1.1866138E7,-1.1354621E7,-1.8868225E6,9.561199E3,1.324765E4,4.9899265E6,1.089024E6,-3.284429E6,5.9510185E6,3.09875E3,7.7693E3,3.202506E6,3.029357E6,1.04640006E6,3.6905988E6,6.83725E3,3.3272995E6,2.45053E4,4.4812255E6,1.5770112E6,5.9976765E6,2.1540677E5,-2.8387748E6,9.663168E6,2.4672385E6,-1.1052672E7,-1.3888512E6,2.2195202E5,1.1470849E6,1.4392705E6,-4.4347585E6,7.5508995E6,1.9142401E6,-3.951053E6,-1.0707456E6,2.2873088E6,-5.346816E5,-2.6978305E6,2.7217922E5],"split_indices":[6,2,0,2,2,2,0,2,0,0,5,0,0,5,1,1,0,0,0,5,2,0,0,0,0,5,1,0,0,0,0,2,0,1,6,0,0,0,0,0,0,0,0,0,0,0,0,0,0,0,0,0,0,0,0],"split_type":[0,0,0,0,0,0,0,0,0,0,0,0,0,0,0,0,0,0,0,0,0,0,0,0,0,0,0,0,0,0,0,0,0,0,0,0,0,0,0,0,0,0,0,0,0,0,0,0,0,0,0,0,0,0,0],"sum_hessian":[2E2,1.93E2,7E0,1.61E2,3.2E1,6E0,1E0,1.55E2,6E0,4E0,2.8E1,2E0,4E0,1.49E2,6E0,4E0,2E0,3E0,1E0,1.6E1,1.2E1,1E0,1E0,1E0,3E0,1.45E2,4E0,4E0,2E0,2E0,2E0,1.4E1,2E0,6E0,6E0,1E0,2E0,1.27E2,1.8E1,3E0,1E0,2E0,2E0,1E0,1E0,1.1E1,3E0,1E0,1E0,5E0,1E0,2E0,4E0,1E0,1E0],"tree_param":{"num_deleted":"0","num_feature":"8","num_nodes":"55","size_leaf_vector":"0"}},{"base_weights":[8.958297E4,1.5558102E6,-3.075073E5,1.1677924E5,8.939858E6,-9.89348E6,-5.974195E4,9.616089E5,-1.5148544E7,7.652053E5,1.2056678E7,-1.415232E6,-1.2247819E7,-1.835554E6,6.9955725E5,-3.5636225E6,1.638626E6,1.556992E6,-4.09184E5,-2.6268472E6,5.3366785E6,9.017288E6,4.672808E4,3.4984E5,-4.629448E6,6.7599725E6,1.9677784E5,-8.313703E5,-5.604754E6,-1.314368E6,7.328032E6,-9.88192E5,1.5218214E7,4.5668595E6,-4.884136E5,9.79752E6,2.032432E6,-1.9144235E6,2.8193812E6,-2.6482338E6,6.2718345E6,-8.488275E6,-6.847589E5,9.719936E6,7.616E4,1.80928E5,-2.247776E6,1.7194928E7,3.65568E6,5.4314175E6,-2.03936E6,-3.5458548E6,6.264334E5],"categories":[],"categories_nodes":[],"categories_segments":[],"categories_sizes":[],"default_left":[1,1,1,1,1,1,1,1,0,1,0,0,0,1,1,1,1,0,0,1,1,1,1,0,0,1,1,1,1,0,1,1,1,1,1,0,0,0,0,0,0,0,0,0,0,0,0,0,0,0,0,0,0],"id":24,"left_children":[1,3,5,7,9,11,13,15,-1,17,-1,-1,-1,19,21,23,25,-1,-1,27,29,31,33,-1,-1,35,37,39,41,-1,43,45,47,49,51,-1,-1,-1,-1,-1,-1,-1,-1,-1,-1,-1,-1,-1,-1,-1,-1,-1,-1],"loss_changes":[1.1750557E14,4.5586857E14,3.7704538E14,4.917411E14,1.6912665E14,6.2509155E13,2.116302E14,1.1613117E14,0E0,3.426694E12,0E0,0E0,0E0,2.8075958E14,5.968849E14,2.247491E13,2.3496434E14,0E0,0E0,2.2525117E14,7.585466E13,5.1138444E14,2.5137831E14,0E0,0E0,8.060808E13,1.4935542E14,3.7796477E14,2.2117817E14,0E0,6.864287E13,6.2971047E12,5.142002E13,7.39027E13,3.1921908E14,0E0,0E0,0E0,0E0,0E0,0E0,0E0,0E0,0E0,0E0,0E0,0E0,0E0,0E0,0E0,0E0,0E0,0E0],"parents":[2147483647,0,0,1,1,2,2,3,3,4,4,5,5,6,6,7,7,9,9,13,13,14,14,15,15,16,16,19,19,20,20,21,21,22,22,25,25,26,26,27,27,28,28,30,30,31,31,32,32,33,33,34,34],"right_children":[2,4,6,8,10,12,14,16,-1,18,-1,-1,-1,20,22,24,26,-1,-1,28,30,32,34,-1,-1,36,38,40,42,-1,44,46,48,50,52,-1,-1,-1,-1,-1,-1,-1,-1,-1,-1,-1,-1,-1,-1,-1,-1,-1,-1],"split_conditions":[4.92905E5,8.923135E5,4.941735E5,8.857145E5,2.37215E3,1.0375535E6,1.64615E3,7.90345E4,-9.089127E6,9.83297E5,7.234007E6,-8.4913925E5,-7.3486915E6,7.3052E3,1.75455E3,3.922415E5,1.67583E5,9.3419525E5,-2.455104E5,1.2781001E3,3.529225E5,3.809085E5,5.44755E3,2.0990402E5,-2.777669E6,1.0414E3,3.918775E5,1.21845E3,1.0371605E6,-7.886208E5,6.21331E5,4.7924004E3,2.3222305E6,2.37415E3,8.43375E3,5.878512E6,1.2194592E6,-1.1486541E6,1.6916289E6,-1.5889404E6,3.7631008E6,-5.092965E6,-4.1085534E5,5.831962E6,4.5696E4,1.08556805E5,-1.3486656E6,1.0316957E7,2.193408E6,3.2588508E6,-1.223616E6,-2.127513E6,3.7586003E5],"split_indices":[3,0,3,0,4,0,2,6,0,0,0,0,0,7,2,3,6,0,0,2,6,6,7,0,0,5,3,2,3,0,6,1,0,2,7,0,0,0,0,0,0,0,0,0,0,0,0,0,0,0,0,0,0],"split_type":[0,0,0,0,0,0,0,0,0,0,0,0,0,0,0,0,0,0,0,0,0,0,0,0,0,0,0,0,0,0,0,0,0,0,0,0,0,0,0,0,0,0,0,0,0,0,0,0,0,0,0,0,0],"sum_hessian":[2E2,4.2E1,1.58E2,3.6E1,6E0,3E0,1.55E2,3.5E1,1E0,2E0,4E0,1E0,2E0,4.6E1,1.09E2,4E0,3.1E1,1E0,1E0,4.2E1,4E0,7E0,1.02E2,1E0,3E0,6E0,2.5E1,2.7E1,1.5E1,1E0,3E0,3E0,4E0,1E1,9.2E1,3E0,3E0,1.4E1,1.1E1,2.2E1,5E0,9E0,6E0,2E0,1E0,2E0,1E0,3E0,1E0,9E0,1E0,2.4E1,6.8E1],"tree_param":{"num_deleted":"0","num_feature":"8","num_nodes":"53","size_leaf_vector":"0"}},{"base_weights":[8.073281E4,3.6688925E6,-8.700899E4,-1.092576E6,6.2317225E6,-7.4015295E6,1.069572E5,1.724416E6,-2.6063788E6,8.160435E6,-1.70592E6,-1.242432E6,-8.630696E6,3.300677E6,-1.28214055E5,1.762752E6,1.0877888E7,-1.3318142E6,4.2530912E5,-2.4800458E5,3.8148428E6,-3.1599216E5,-7.387248E6,2.3158628E6,-3.3144872E5,-1.166312E6,7.32304E5,4.389011E6,4.72E5,-5.356504E6,1.2918261E5,-1.2021867E7,4.3444055E6,1.2218912E6,7.399744E6,3.70856E6,-8.386467E5],"categories":[],"categories_nodes":[],"categories_segments":[],"categories_sizes":[],"default_left":[1,1,1,1,1,1,1,0,0,0,0,0,0,1,1,1,0,1,1,1,1,1,1,1,1,0,0,0,0,0,0,0,0,0,0,0,0],"id":25,"left_children":[1,3,5,7,9,11,13,-1,-1,-1,-1,-1,-1,15,17,19,-1,21,23,25,27,29,31,33,35,-1,-1,-1,-1,-1,-1,-1,-1,-1,-1,-1,-1],"loss_changes":[1.21298E14,1.1663415E14,2.7461422E14,2.1551961E13,1.0577763E14,2.7129715E13,1.4237563E14,0E0,0E0,0E0,0E0,0E0,0E0,1.3231633E14,1.1848748E14,5.0461156E13,0E0,3.4213535E14,1.7531194E14,7.1556677E12,9.444524E12,1.106435E14,4.8720176E14,1.8561506E14,1.8342956E14,0E0,0E0,0E0,0E0,0E0,0E0,0E0,0E0,0E0,0E0,0E0,0E0],"parents":[2147483647,0,0,1,1,2,2,3,3,4,4,5,5,6,6,13,13,14,14,15,15,17,17,18,18,19,19,20,20,21,21,22,22,23,23,24,24],"right_children":[2,4,6,8,10,12,14,-1,-1,-1,-1,-1,-1,16,18,20,-1,22,24,26,28,30,32,34,36,-1,-1,-1,-1,-1,-1,-1,-1,-1,-1,-1,-1],"split_conditions":[1.84515E3,1.76785E3,1.92085E3,8.65184E5,1.1307675E6,8.558375E5,3.48165E3,1.0346496E6,-1.5638272E6,4.896261E6,-1.02355206E6,-7.4545925E5,-5.178418E6,3.43655E3,6.02005E3,1.1653999E3,6.526733E6,5.44755E3,4.3695E3,1.98425E3,1.160803E6,2.3393E3,1.909494E6,2.6732002E3,9.54612E5,-6.9978725E5,4.393824E5,2.6334068E6,2.832E5,-3.2139025E6,7.750957E4,-7.2131205E6,2.6066435E6,7.3313475E5,4.4398465E6,2.225136E6,-5.0318803E5],"split_indices":[1,1,1,0,0,0,7,0,0,0,0,0,0,7,7,5,0,7,4,1,0,1,0,2,3,0,0,0,0,0,0,0,0,0,0,0,0],"split_type":[0,0,0,0,0,0,0,0,0,0,0,0,0,0,0,0,0,0,0,0,0,0,0,0,0,0,0,0,0,0,0,0,0,0,0,0,0],"sum_hessian":[2E2,8E0,1.92E2,3E0,5E0,4E0,1.88E2,1E0,2E0,4E0,1E0,1E0,3E0,1.2E1,1.76E2,1.1E1,1E0,5.5E1,1.21E2,6E0,5E0,4.8E1,7E0,3.4E1,8.7E1,3E0,3E0,4E0,1E0,3E0,4.5E1,5E0,2E0,2.9E1,5E0,9E0,7.8E1],"tree_param":{"num_deleted":"0","num_feature":"8","num_nodes":"37","size_leaf_vector":"0"}},{"base_weights":[6.0926566E4,-7.707464E4,3.39984E6,2.3619022E5,-1.6125848E6,7.578697E5,1.0946816E7,-1.1100984E5,7.9400505E6,-8.604634E6,-3.514527E5,4.813056E6,-1.826816E6,-3.7574294E5,4.83352E6,3.945408E6,1.1951104E7,-9.686992E6,-2.1376E6,-1.7592686E6,9.02352E5,5.885312E6,1.334272E6,-3.768064E6,-3.99488E5,-2.9291637E4,-7.3995705E6,7.9552E6,-2.7696E5,-5.4112E4,-7.993472E6,8.616021E6,-8.150309E5,1.903616E6,-1.801728E6,-3.8094816E5,5.2488105E6,2.413184E6,-9.437227E6,2.038592E6,8.924704E6,-1.303936E6,1.401984E6,-2.2895615E6,1.349808E6,-4.5689175E6,1.9136E5,-3.083776E6,3.81184E5],"categories":[],"categories_nodes":[],"categories_segments":[],"categories_sizes":[],"default_left":[1,1,1,1,1,1,0,1,1,1,1,1,1,1,1,0,0,0,0,1,1,0,0,0,1,1,1,1,1,1,0,0,1,0,1,0,0,0,0,0,0,0,0,0,0,0,0,0,0],"id":26,"left_children":[1,3,5,7,9,11,-1,13,15,17,19,21,23,25,27,-1,-1,-1,-1,29,31,-1,-1,-1,33,35,37,39,41,43,-1,-1,45,-1,47,-1,-1,-1,-1,-1,-1,-1,-1,-1,-1,-1,-1,-1,-1],"loss_changes":[9.287764E13,9.369901E13,1.5121483E14,4.341959E14,2.879665E14,8.216225E13,0E0,2.0601713E14,6.500705E13,1.4291302E13,5.277614E13,3.3378313E12,1.2348692E13,3.6236196E14,1.2982951E14,0E0,0E0,0E0,0E0,1.4839156E14,2.189795E14,0E0,0E0,0E0,1.6347817E13,2.6741884E14,1.6273893E14,1.0487069E13,8.725038E12,4.075118E13,0E0,0E0,5.376459E13,0E0,9.571279E12,0E0,0E0,0E0,0E0,0E0,0E0,0E0,0E0,0E0,0E0,0E0,0E0,0E0,0E0],"parents":[2147483647,0,0,1,1,2,2,3,3,4,4,5,5,7,7,8,8,9,9,10,10,11,11,12,12,13,13,14,14,19,19,20,20,24,24,25,25,26,26,27,27,28,28,29,29,32,32,34,34],"right_children":[2,4,6,8,10,12,-1,14,16,18,20,22,24,26,28,-1,-1,-1,-1,30,32,-1,-1,-1,34,36,38,40,42,44,-1,-1,46,-1,48,-1,-1,-1,-1,-1,-1,-1,-1,-1,-1,-1,-1,-1,-1],"split_conditions":[5.839153E6,4.2806E3,6.0526095E6,4.0204502E3,4.4095E3,4.5015996E3,6.56809E6,1.9437815E6,2.302336E6,4.7184045E6,1.918005E4,5.842513E6,5.8767175E6,1.611965E6,3.7832E3,2.367245E6,7.1706625E6,-5.8121955E6,-1.28256E6,6.7101E3,1.5098551E4,3.5311872E6,8.0056325E5,-2.2608385E6,5.9510185E6,1.1707035E6,2.7868E3,2.480289E6,3.44146E6,4.6464004E3,-4.7960835E6,5.169613E6,2.33968E4,1.1421696E6,5.9976765E6,-2.285689E5,3.1492865E6,1.4479105E6,-5.6623365E6,1.2231552E6,5.3548225E6,-7.823616E5,8.4119044E5,-1.373737E6,8.098848E5,-2.7413505E6,1.1481601E5,-1.8502656E6,2.287104E5],"split_indices":[6,2,0,2,2,2,0,6,0,0,7,0,0,6,2,0,0,0,0,2,1,0,0,0,0,3,4,0,0,2,0,0,7,0,0,0,0,0,0,0,0,0,0,0,0,0,0,0,0],"split_type":[0,0,0,0,0,0,0,0,0,0,0,0,0,0,0,0,0,0,0,0,0,0,0,0,0,0,0,0,0,0,0,0,0,0,0,0,0,0,0,0,0,0,0,0,0,0,0,0,0],"sum_hessian":[2E2,1.93E2,7E0,1.61E2,3.2E1,6E0,1E0,1.55E2,6E0,4E0,2.8E1,2E0,4E0,1.48E2,7E0,4E0,2E0,3E0,1E0,1.3E1,1.5E1,1E0,1E0,1E0,3E0,1.42E2,6E0,4E0,3E0,1.1E1,2E0,2E0,1.3E1,1E0,2E0,1.34E2,8E0,1E0,5E0,1E0,3E0,2E0,1E0,4E0,7E0,2E0,1.1E1,1E0,1E0],"tree_param":{"num_deleted":"0","num_feature":"8","num_nodes":"49","size_leaf_vector":"0"}},{"base_weights":[8.9690266E4,1.5247344E5,-6.233472E6,-1.5564089E5,1.1314114E6,1.4308339E5,-5.587904E6,6.294896E6,6.4729244E5,-8.525994E4,2.4857698E6,-2.314624E6,-1.0271829E7,-8.08192E6,1.0293636E6,1.3394067E5,-5.767424E6,7.691955E6,-6.82752E5,3.8760534E5,-3.76264E6,4.7860295E6,3.102577E5,3.904738E5,-4.429495E6,1.299136E6,8.965376E6,-1.241088E6,1.891968E6,4.7056E5,1.10848E5,-5.846432E6,-1.119232E6,3.0864E5,8.066912E6,2.030702E6,-9.000626E5],"categories":[],"categories_nodes":[],"categories_segments":[],"categories_sizes":[],"default_left":[1,1,0,1,1,1,1,0,1,1,1,1,0,0,1,1,0,1,1,1,1,1,1,0,0,0,0,0,0,0,0,0,0,0,0,0,0],"id":27,"left_children":[1,3,-1,5,7,9,11,-1,13,15,17,19,-1,-1,21,23,-1,25,27,29,31,33,35,-1,-1,-1,-1,-1,-1,-1,-1,-1,-1,-1,-1,-1,-1],"loss_changes":[8.074507E13,6.050105E13,0E0,2.4908012E14,1.1591291E14,7.831271E13,9.887899E13,0E0,1.5840235E14,1.6767403E14,2.1969855E14,2.4935651E13,0E0,0E0,1.173785E14,1.5391701E14,0E0,2.9056494E13,1.5286128E13,1.6714269E10,1.5489732E13,1.0033874E14,8.095473E13,0E0,0E0,0E0,0E0,0E0,0E0,0E0,0E0,0E0,0E0,0E0,0E0,0E0,0E0],"parents":[2147483647,0,0,1,1,3,3,4,4,5,5,6,6,8,8,9,9,10,10,11,11,14,14,15,15,17,17,18,18,19,19,20,20,21,21,22,22],"right_children":[2,4,-1,6,8,10,12,-1,14,16,18,20,-1,-1,22,24,-1,26,28,30,32,34,36,-1,-1,-1,-1,-1,-1,-1,-1,-1,-1,-1,-1,-1,-1],"split_conditions":[2.8312648E4,7.7217E3,-3.7400832E6,7.2278E3,7.8508E3,2.6732002E3,2.310272E6,3.7769378E6,1.122605E4,8.544949E3,3.7832E3,4.28935E3,-6.1630975E6,-4.849152E6,8.14865E3,3.26515E3,-3.4604545E6,2.026987E6,1.2081E4,2.126804E6,2.167526E6,1.0220805E6,5.9279E3,2.342843E5,-2.657697E6,7.794816E5,5.379226E6,-7.446528E5,1.1351809E6,2.82336E5,6.6508805E4,-3.5078592E6,-6.7153925E5,1.85184E5,4.8401475E6,1.2184212E6,-5.400376E5],"split_indices":[4,1,0,1,1,2,0,0,7,7,2,2,0,0,4,5,0,0,7,0,0,6,5,0,0,0,0,0,0,0,0,0,0,0,0,0,0],"split_type":[0,0,0,0,0,0,0,0,0,0,0,0,0,0,0,0,0,0,0,0,0,0,0,0,0,0,0,0,0,0,0,0,0,0,0,0,0],"sum_hessian":[2E2,1.99E2,1E0,1.52E2,4.7E1,1.45E2,7E0,3E0,4.4E1,1.33E2,1.2E1,5E0,2E0,1E0,4.3E1,1.29E2,4E0,4E0,8E0,2E0,3E0,6E0,3.7E1,1.23E2,6E0,1E0,3E0,7E0,1E0,1E0,1E0,1E0,2E0,3E0,3E0,1.5E1,2.2E1],"tree_param":{"num_deleted":"0","num_feature":"8","num_nodes":"37","size_leaf_vector":"0"}},{"base_weights":[-6.0806367E3,7.449044E5,-5.406286E5,-5.601671E5,1.6885302E6,-9.76192E6,-2.9748634E5,2.613967E5,-9.684501E6,1.9892906E6,-6.373984E6,8.275072E6,-4.4398747E5,-2.4039E5,5.526656E6,-8.76992E5,2.500046E6,-1.25882E6,5.6742156E5,1.3032791E6,-2.3181988E6,6.844352E6,1.445632E6,-5.0573545E6,1.3593546E6,3.3823452E6,5.568731E5,-8.356645E5,-9.584427E6,2.8365972E6,-1.1056702E5,1.51192E5,2.8685E6,3.890144E6,-3.0950055E6,-1.2132E6,-6.372832E6,3.443552E6,-5.43632E5,1.0488106E6,4.8305845E6,-2.4134932E6,2.4752428E6,2.439596E6,-1.2968721E6,6.0253695E6,4.8904E5,-2.996224E6,5.7166306E5],"categories":[],"categories_nodes":[],"categories_segments":[],"categories_sizes":[],"default_left":[1,1,1,1,1,0,1,1,0,1,0,0,1,1,1,1,1,1,1,1,1,0,0,1,1,1,1,1,0,1,1,0,0,0,0,0,0,0,0,0,0,0,0,0,0,0,0,0,0],"id":28,"left_children":[1,3,5,7,9,-1,11,13,-1,15,-1,-1,17,19,21,23,25,27,29,31,33,-1,-1,35,37,39,41,43,-1,45,47,-1,-1,-1,-1,-1,-1,-1,-1,-1,-1,-1,-1,-1,-1,-1,-1,-1,-1],"loss_changes":[8.109166E13,1.0439179E14,2.6166206E14,2.7239552E14,1.3149906E14,0E0,1.4935722E14,9.115781E13,0E0,7.246304E13,0E0,0E0,9.548912E13,1.0565964E14,6.2382303E12,8.166466E13,6.8409333E13,2.174643E14,8.031435E13,3.3828452E13,7.955757E13,0E0,0E0,7.439177E12,2.5669224E13,8.956007E13,8.574963E13,9.681952E13,0E0,8.688325E13,8.2428794E13,0E0,0E0,0E0,0E0,0E0,0E0,0E0,0E0,0E0,0E0,0E0,0E0,0E0,0E0,0E0,0E0,0E0,0E0],"parents":[2147483647,0,0,1,1,2,2,3,3,4,4,6,6,7,7,9,9,12,12,13,13,14,14,15,15,16,16,17,17,18,18,19,19,20,20,23,23,24,24,25,25,26,26,27,27,29,29,30,30],"right_children":[2,4,6,8,10,-1,12,14,-1,16,-1,-1,18,20,22,24,26,28,30,32,34,-1,-1,36,38,40,42,44,-1,46,48,-1,-1,-1,-1,-1,-1,-1,-1,-1,-1,-1,-1,-1,-1,-1,-1,-1,-1],"split_conditions":[4.0587998E3,1.0904E3,4.0794502E3,4.7143E3,2.483075E6,-5.857152E6,4.086E3,1.5545165E6,-5.810701E6,3.84745E3,-3.8243905E6,4.9650435E6,2.407637E6,8.529E2,1.577283E6,4.94116E5,6.3326E3,2.3743E6,3.82085E3,1.98425E3,1.80155E3,4.1066112E6,8.6737925E5,1.0375535E6,1.0646885E6,2.41015E3,6.6468E3,4.325445E5,-5.7506565E6,1.4916735E6,1.191225E4,9.07152E4,1.7211001E6,2.3340865E6,-1.8570034E6,-7.2792E5,-3.8236992E6,2.0661312E6,-3.2617922E5,6.292864E5,2.8983508E6,-1.448096E6,1.4851458E6,1.4637576E6,-7.781233E5,3.6152218E6,2.93424E5,-1.7977345E6,3.4299784E5],"split_indices":[4,2,4,7,0,0,4,0,0,7,0,0,0,2,0,3,7,0,2,1,1,0,0,0,0,4,7,3,0,6,7,0,0,0,0,0,0,0,0,0,0,0,0,0,0,0,0,0,0],"split_type":[0,0,0,0,0,0,0,0,0,0,0,0,0,0,0,0,0,0,0,0,0,0,0,0,0,0,0,0,0,0,0,0,0,0,0,0,0,0,0,0,0,0,0,0,0,0,0,0,0],"sum_hessian":[2E2,8.3E1,1.17E2,3.5E1,4.8E1,2E0,1.15E2,3.3E1,2E0,4.7E1,1E0,1E0,1.14E2,3.1E1,2E0,7E0,4E1,6.3E1,5.1E1,1.8E1,1.3E1,1E0,1E0,2E0,5E0,2.7E1,1.3E1,6.1E1,2E0,1.1E1,4E1,1.1E1,7E0,1E0,1.2E1,1E0,1E0,2E0,3E0,1.1E1,1.6E1,5E0,8E0,7E0,5.4E1,4E0,7E0,7E0,3.3E1],"tree_param":{"num_deleted":"0","num_feature":"8","num_nodes":"49","size_leaf_vector":"0"}},{"base_weights":[-2.791992E4,-8.628554E5,2.617105E5,1.67947E5,-2.3925135E6,3.8014932E6,3.5515043E4,-5.1436684E5,3.9553152E6,-6.7750295E6,-5.99538E5,-4.094944E6,5.300416E6,-5.7865984E4,6.60112E6,1.473684E6,-1.2472259E6,-1.7400534E6,-8.857504E6,4.302144E6,-1.6070742E6,2.2054655E6,7.844E6,-3.5851905E6,7.129086E4,-9.619776E5,4.14984E6,1.694304E6,-2.272348E6,2.20392E5,-3.4660252E6,2.507936E6,4.97792E5,-4.36928E5,-5.5383895E6,4.008752E6,-4.6777312E4,-6.1376E4,-1.54192E6,4.9406505E6,8.88704E5,-6.673024E5,6.751168E6,-4.43632E6,-8.8542256E5,1.7740608E6,-1.776792E6,-4.2831785E6,7.18448E5,-1.218368E6,5.62976E5,1.15888E6,4.572416E6,-7.7465144E5,2.82443E5],"categories":[],"categories_nodes":[],"categories_segments":[],"categories_sizes":[],"default_left":[1,1,1,1,1,1,1,1,0,1,1,0,1,1,0,1,1,0,0,0,1,1,0,1,1,1,1,1,1,1,1,0,0,1,0,1,1,0,0,0,0,0,0,0,0,0,0,0,0,0,0,0,0,0,0],"id":29,"left_children":[1,3,5,7,9,11,13,15,-1,17,19,-1,21,23,-1,25,27,-1,-1,-1,29,31,-1,33,35,37,39,41,43,45,47,-1,-1,49,-1,51,53,-1,-1,-1,-1,-1,-1,-1,-1,-1,-1,-1,-1,-1,-1,-1,-1,-1,-1],"loss_changes":[4.883219E13,8.239412E13,1.1996742E14,8.4728045E13,1.6095073E14,1.2823025E14,8.74426E13,4.2632928E13,0E0,4.749873E13,8.593183E13,0E0,4.5678437E13,6.4492105E13,0E0,5.613773E13,6.7174014E13,0E0,0E0,0E0,4.8324262E13,1.3341745E12,0E0,2.832603E13,6.387729E13,2.5168487E12,5.9249955E12,7.615901E13,4.409227E13,2.7975836E13,2.7012735E13,0E0,0E0,3.030007E12,0E0,1.1265984E12,3.2329343E13,0E0,0E0,0E0,0E0,0E0,0E0,0E0,0E0,0E0,0E0,0E0,0E0,0E0,0E0,0E0,0E0,0E0,0E0],"parents":[2147483647,0,0,1,1,2,2,3,3,4,4,5,5,6,6,7,7,9,9,10,10,12,12,13,13,15,15,16,16,20,20,21,21,23,23,24,24,25,25,26,26,27,27,28,28,29,29,30,30,33,33,35,35,36,36],"right_children":[2,4,6,8,10,12,14,16,-1,18,20,-1,22,24,-1,26,28,-1,-1,-1,30,32,-1,34,36,38,40,42,44,46,48,-1,-1,50,-1,52,54,-1,-1,-1,-1,-1,-1,-1,-1,-1,-1,-1,-1,-1,-1,-1,-1,-1,-1],"split_conditions":[4.017325E5,4.3722E3,4.362045E5,4.2308E3,4.59165E3,1.05545E3,2.768295E4,1.694025E5,2.3731892E6,4.34434E5,4.68475E3,-2.4569665E6,2.9984502E3,4.67214E5,3.9606722E6,2.62255E3,3.48165E3,-1.04403206E6,-5.3145025E6,2.5812865E6,1.63088E5,3.53695E3,4.7064E6,3.82925E3,8.666645E5,2.08435E3,1.529895E6,3.41805E3,8.529345E5,8.18145E5,2.0783095E6,1.5047616E6,2.9867522E5,1.438071E6,-3.3230338E6,1.7491499E3,3.5373E3,-3.68256E4,-9.2515206E5,2.9643905E6,5.3322244E5,-4.0038144E5,4.050701E6,-2.661792E6,-5.3125356E5,1.0644365E6,-1.0660752E6,-2.5699072E6,4.310688E5,-7.310208E5,3.3778562E5,6.95328E5,2.7434498E6,-4.6479088E5,1.6946581E5],"split_indices":[6,4,6,4,4,2,4,6,0,3,4,0,4,6,0,1,7,0,0,0,6,1,0,1,0,1,0,7,0,3,0,0,0,0,0,1,1,0,0,0,0,0,0,0,0,0,0,0,0,0,0,0,0,0,0],"split_type":[0,0,0,0,0,0,0,0,0,0,0,0,0,0,0,0,0,0,0,0,0,0,0,0,0,0,0,0,0,0,0,0,0,0,0,0,0,0,0,0,0,0,0,0,0,0,0,0,0,0,0,0,0,0,0],"sum_hessian":[2E2,5.1E1,1.49E2,3.1E1,2E1,8E0,1.41E2,2.7E1,4E0,5E0,1.5E1,1E0,7E0,1.4E2,1E0,7E0,2E1,2E0,3E0,2E0,1.3E1,4E0,3E0,4E0,1.36E2,4E0,3E0,5E0,1.5E1,7E0,6E0,3E0,1E0,2E0,2E0,3E0,1.33E2,2E0,2E0,2E0,1E0,4E0,1E0,5E0,1E1,4E0,3E0,5E0,1E0,1E0,1E0,1E0,2E0,4.1E1,9.2E1],"tree_param":{"num_deleted":"0","num_feature":"8","num_nodes":"55","size_leaf_vector":"0"}},{"base_weights":[2.3099383E4,1.4246418E6,-1.1413356E5,-2.145488E6,1.7608546E6,7.881031E5,-2.6759088E5,2.2934202E6,2.40128E4,-2.4257745E5,4.4359145E6,-4.653048E6,-1.526914E5,1.3764888E6,4.8910295E6,-1.7216854E6,1.7617066E6,3.9058525E5,-3.189456E6,4.825357E6,1.244352E6,4.515776E6,-2.1232934E5,1.535232E6,-1.05472E5,-3.6032E4,-2.546496E6,2.4746752E6,-3.301504E5,-1.4941344E6,-2.0859496E4,5.6344E5,1.8712229E6,1.5210667E5,3.972352E6,-1.2493324E6,1.75808E6,-6.0570668E4,-3.2395378E6,-3.781456E6,9.3256E4],"categories":[],"categories_nodes":[],"categories_segments":[],"categories_sizes":[],"default_left":[1,1,1,0,1,1,1,1,1,1,1,0,1,1,0,1,0,1,0,0,0,0,1,1,0,0,0,1,1,1,1,0,0,0,0,0,0,0,0,0,0],"id":30,"left_children":[1,3,5,-1,7,9,11,13,15,17,19,-1,21,23,-1,25,-1,27,-1,-1,-1,-1,29,31,-1,-1,-1,33,35,37,39,-1,-1,-1,-1,-1,-1,-1,-1,-1,-1],"loss_changes":[3.8822495E13,2.5383714E13,2.5686578E13,0E0,1.5669626E13,1.0258872E14,7.8903624E13,2.4231341E13,1.8200549E13,4.2294535E13,1.4531334E12,0E0,4.411359E13,2.7496892E12,0E0,4.0792794E12,0E0,2.9356496E13,0E0,0E0,0E0,0E0,3.7764595E13,2.2108092E12,0E0,0E0,0E0,1.6788065E13,3.0988382E13,4.984672E13,5.828686E13,0E0,0E0,0E0,0E0,0E0,0E0,0E0,0E0,0E0,0E0],"parents":[2147483647,0,0,1,1,2,2,4,4,5,5,6,6,7,7,8,8,9,9,10,10,12,12,13,13,15,15,17,17,22,22,23,23,27,27,28,28,29,29,30,30],"right_children":[2,4,6,-1,8,10,12,14,16,18,20,-1,22,24,-1,26,-1,28,-1,-1,-1,-1,30,32,-1,-1,-1,34,36,38,40,-1,-1,-1,-1,-1,-1,-1,-1,-1,-1],"split_conditions":[2.15945E3,2.50405E3,9.988E2,-1.2872929E6,5.72564E5,4.3403496E3,1.0313999E3,5.562845E5,1.1538805E6,8.71512E5,1.577283E6,-2.791829E6,1.0568999E3,2.37415E3,2.9346178E6,1.145496E6,1.057024E6,3.828485E5,-1.9136736E6,2.8952142E6,7.4661125E5,2.7094658E6,5.0033E3,8.504E2,-6.3283203E4,-2.1619201E4,-1.5278976E6,1.76785E3,9.261E2,3.51795E3,3.06475E3,3.38064E5,1.1227338E6,9.126401E4,2.3834112E6,-7.4959944E5,1.054848E6,-3.6342402E4,-1.9437228E6,-2.2688738E6,5.59536E4],"split_indices":[4,7,2,0,3,7,2,3,0,0,0,0,2,2,0,0,0,3,0,0,0,0,7,2,0,0,0,1,5,1,1,0,0,0,0,0,0,0,0,0,0],"split_type":[0,0,0,0,0,0,0,0,0,0,0,0,0,0,0,0,0,0,0,0,0,0,0,0,0,0,0,0,0,0,0,0,0,0,0,0,0,0,0,0,0],"sum_hessian":[2E2,1.7E1,1.83E2,1E0,1.6E1,2.6E1,1.57E2,1.2E1,4E0,2.1E1,5E0,3E0,1.54E2,1E1,2E0,2E0,2E0,1.8E1,3E0,4E0,1E0,1E0,1.53E2,9E0,1E0,1E0,1E0,4E0,1.4E1,1.9E1,1.34E2,3E0,6E0,2E0,2E0,1E1,4E0,1.1E1,8E0,3E0,1.31E2],"tree_param":{"num_deleted":"0","num_feature":"8","num_nodes":"41","size_leaf_vector":"0"}},{"base_weights":[2.3099701E4,2.4650473E5,-6.941393E5,1.374193E5,8.468288E6,-6.426944E6,-1.6913138E5,5.7793707E4,3.089024E6,3.359552E6,-4.113853E5,3.7044266E5,-5.3855325E5,4.802048E6,9.173333E5,-1.628608E6,7.1787825E5,-1.1768521E5,3.3424822E6,-4.153144E6,1.1600853E5,1.130496E6,2.45504E5,-4.845696E6,-5.866052E5,6.342336E6,-4.429072E5,2.4215548E5,-3.2232285E6,-3.25672E6,4.1006302E6,-1.06901336E5,-5.4840745E6,3.410176E6,-2.0048381E5,-7.5232E5,-5.68096E6,-2.6881025E6,2.6678647E5,1.451904E6,7.488512E6,1.4209814E6,-1.1589355E6],"categories":[],"categories_nodes":[],"categories_segments":[],"categories_sizes":[],"default_left":[1,1,1,1,0,0,1,1,1,0,1,1,1,0,1,1,1,1,1,1,1,0,0,1,1,1,1,0,0,0,0,0,0,0,0,0,0,0,0,0,0,0,0],"id":31,"left_children":[1,3,5,7,-1,-1,9,11,13,-1,15,17,19,-1,21,23,25,27,29,31,33,-1,-1,35,37,39,41,-1,-1,-1,-1,-1,-1,-1,-1,-1,-1,-1,-1,-1,-1,-1,-1],"loss_changes":[3.2378303E13,1.3695532E14,1.4338188E14,3.578003E13,0E0,0E0,3.984975E13,2.816659E13,1.0475555E13,0E0,6.0275445E13,1.4401616E14,1.235124E14,0E0,1.5208546E11,6.7554E13,1.529712E14,9.6885595E13,8.3399E13,4.2495883E13,4.759973E13,0E0,0E0,1.282135E13,3.1204955E13,1.154858E13,2.8338765E13,0E0,0E0,0E0,0E0,0E0,0E0,0E0,0E0,0E0,0E0,0E0,0E0,0E0,0E0,0E0,0E0],"parents":[2147483647,0,0,1,1,2,2,3,3,6,6,7,7,8,8,10,10,11,11,12,12,14,14,15,15,16,16,17,17,18,18,19,19,20,20,23,23,24,24,25,25,26,26],"right_children":[2,4,6,8,-1,-1,10,12,14,-1,16,18,20,-1,22,24,26,28,30,32,34,-1,-1,36,38,40,42,-1,-1,-1,-1,-1,-1,-1,-1,-1,-1,-1,-1,-1,-1,-1,-1],"split_conditions":[6.2078E3,6.1726504E3,6.2858496E3,7.93155E3,5.080973E6,-3.8561665E6,9.945301E3,1.81135E3,7.97855E3,2.0157312E6,1.91744E4,1.64615E3,1.91665E3,2.881229E6,2.5021455E6,1.5721085E6,2.108045E4,1.51025E3,3.95655E3,2.3561E3,1.97045E3,6.782976E5,1.473024E5,1.1260045E6,8.79325E3,3.2863735E6,9.96651E5,1.452933E5,-1.9339371E6,-1.9540321E6,2.4603782E6,-6.4140805E4,-3.2904448E6,2.0461056E6,-1.2029029E5,-4.5139203E5,-3.4085762E6,-1.6128616E6,1.6007189E5,8.7114244E5,4.4931075E6,8.525889E5,-6.953613E5],"split_indices":[4,4,4,1,0,0,7,2,1,0,7,2,2,0,0,3,7,2,7,5,2,0,0,3,4,0,3,0,0,0,0,0,0,0,0,0,0,0,0,0,0,0,0],"split_type":[0,0,0,0,0,0,0,0,0,0,0,0,0,0,0,0,0,0,0,0,0,0,0,0,0,0,0,0,0,0,0,0,0,0,0,0,0,0,0,0,0,0,0],"sum_hessian":[2E2,1.53E2,4.7E1,1.52E2,1E0,3E0,4.4E1,1.49E2,3E0,2E0,4.2E1,9.8E1,5.1E1,1E0,2E0,2E1,2.2E1,8.5E1,1.3E1,7E0,4.4E1,1E0,1E0,4E0,1.6E1,3E0,1.9E1,7.7E1,8E0,1E0,1.2E1,2E0,5E0,3E0,4.1E1,1E0,3E0,4E0,1.2E1,1E0,2E0,5E0,1.4E1],"tree_param":{"num_deleted":"0","num_feature":"8","num_nodes":"43","size_leaf_vector":"0"}},{"base_weights":[3.1359045E4,-6.881293E3,1.916416E6,7.414078E4,-1.5375104E6,2.740224E6,-2.77504E5,-1.999879E4,3.5424768E6,-2.0383574E6,1.485056E6,1.4730653E5,-7.6736375E5,1.01632E6,3.919936E6,-2.329504E6,1.45408E5,6.9768055E4,5.927808E6,5.6338706E5,-1.5188364E6,1.100288E6,4.493056E6,-6.8832E5,-3.1765505E6,-4.565228E4,1.70176E6,-3.3959562E5,3.686528E6,-4.084304E6,-4.93312E4,1.356032E6,-1.8217814E6,-3.9199572E6,-1.3742934E6],"categories":[],"categories_nodes":[],"categories_segments":[],"categories_sizes":[],"default_left":[1,1,1,1,1,0,0,1,1,1,0,1,1,0,1,1,0,1,0,1,1,0,0,1,1,0,0,0,0,0,0,0,0,0,0],"id":32,"left_children":[1,3,5,7,9,-1,-1,11,13,15,-1,17,19,-1,21,23,-1,25,-1,27,29,-1,-1,31,33,-1,-1,-1,-1,-1,-1,-1,-1,-1,-1],"loss_changes":[1.4502315E13,2.4668912E13,7.9898985E12,6.1780793E13,1.8165505E13,0E0,0E0,2.3245093E13,7.837015E11,6.060891E12,0E0,6.7714542E13,3.4856468E13,0E0,1.5203303E12,8.93479E12,0E0,2.852081E13,0E0,3.7913778E13,8.273781E13,0E0,0E0,1.173917E13,1.3118818E12,0E0,0E0,0E0,0E0,0E0,0E0,0E0,0E0,0E0,0E0],"parents":[2147483647,0,0,1,1,2,2,3,3,4,4,7,7,8,8,9,9,11,11,12,12,14,14,15,15,17,17,19,19,20,20,23,23,24,24],"right_children":[2,4,6,8,10,-1,-1,12,14,16,-1,18,20,-1,22,24,-1,26,-1,28,30,-1,-1,32,34,-1,-1,-1,-1,-1,-1,-1,-1,-1,-1],"split_conditions":[8.2168605E6,1.080145E4,4.4812255E6,9.227699E3,1.7345E4,1.6441345E6,-1.665024E5,6.2078E3,3.2863735E6,8.175485E6,8.910336E5,6.1726504E3,7.825905E5,6.09792E5,8.61015E3,1.003015E4,8.7244805E4,1.01248E4,3.556685E6,6.78171E5,3.6032155E6,6.601728E5,2.6958338E6,3.380659E6,2.44287E4,-2.739137E4,1.02105606E6,-2.0375739E5,2.211917E6,-2.4505825E6,-2.959872E4,8.1361925E5,-1.0930689E6,-2.3519745E6,-8.2457606E5],"split_indices":[0,5,6,5,4,0,0,4,0,0,0,4,6,0,1,4,0,7,0,6,0,0,0,0,1,0,0,0,0,0,0,0,0,0,0],"split_type":[0,0,0,0,0,0,0,0,0,0,0,0,0,0,0,0,0,0,0,0,0,0,0,0,0,0,0,0,0,0,0,0,0,0,0],"sum_hessian":[2E2,1.97E2,3E0,1.88E2,9E0,2E0,1E0,1.84E2,4E0,8E0,1E0,1.51E2,3.3E1,1E0,3E0,7E0,1E0,1.5E2,1E0,1.2E1,2.1E1,1E0,2E0,3E0,4E0,1.41E2,9E0,1E1,2E0,7E0,1.4E1,1E0,2E0,2E0,2E0],"tree_param":{"num_deleted":"0","num_feature":"8","num_nodes":"35","size_leaf_vector":"0"}},{"base_weights":[4.7591004E4,3.7850694E5,-1.523868E5,-1.30963336E5,1.2087161E6,-3.8152065E6,-1.02216394E3,7.6064695E4,-3.2617388E6,1.2182222E5,2.7383308E6,-9.104213E5,-5.448256E6,8.1215644E5,-2.29718E5,-3.5195023E4,2.541376E6,-2.574664E6,8.3276375E5,9.168E5,3.9084525E6,-2.177728E6,8.12096E5,6.8378945E4,2.2921138E6,-4.292864E6,-5.2488945E4,6.099722E5,-4.8789806E5,3.95888E5,1.9352E6,2.0446934E6,-1.5832E5,3.51872E5,4.4425705E6,3.102096E6,-2.7249956E5,3.2005898E6,-5.917013E5,-6.20672E6,7.24352E5,-1.5622309E6,2.12372E5,-4.3285688E5,1.407744E6,-2.375064E6,-1.5304133E5,1.316912E6,-5.7443555E4,-5.2768E5,4.7488E5,-1.3617512E6,1.259284E6,4.61552E5,3.5801708E6,3.83168E5,-1.27072E6,3.465728E5,-2.3604095E6,4.46336E6,1.020638E5],"categories":[],"categories_nodes":[],"categories_segments":[],"categories_sizes":[],"default_left":[1,1,1,1,1,1,1,1,0,1,1,1,0,1,1,1,0,0,1,1,1,0,0,1,1,1,1,1,1,1,0,0,1,0,0,0,1,1,1,0,0,1,1,0,0,0,0,0,0,0,0,0,0,0,0,0,0,0,0,0,0],"id":33,"left_children":[1,3,5,7,9,11,13,15,-1,17,19,21,-1,23,25,27,-1,-1,29,31,33,-1,-1,35,37,39,41,43,45,47,-1,-1,49,-1,-1,-1,51,53,55,-1,-1,57,59,-1,-1,-1,-1,-1,-1,-1,-1,-1,-1,-1,-1,-1,-1,-1,-1,-1,-1],"loss_changes":[1.3359024E13,3.2303785E13,6.985319E13,3.13597E13,4.7879746E13,1.8758085E13,2.2874975E13,1.2706777E13,0E0,3.665088E13,2.199368E13,8.3173966E12,0E0,2.9563761E13,6.890499E13,1.3440717E13,0E0,0E0,6.458293E12,7.599439E12,1.173422E13,0E0,0E0,2.049377E13,2.5472675E13,4.290477E13,3.751984E13,1.6416206E13,1.6698634E13,5.0859994E12,0E0,0E0,1.1860996E12,0E0,0E0,0E0,3.1747794E13,5.6253754E12,2.4727627E12,0E0,0E0,2.2147985E13,3.705796E13,0E0,0E0,0E0,0E0,0E0,0E0,0E0,0E0,0E0,0E0,0E0,0E0,0E0,0E0,0E0,0E0,0E0,0E0],"parents":[2147483647,0,0,1,1,2,2,3,3,4,4,5,5,6,6,7,7,9,9,10,10,11,11,13,13,14,14,15,15,18,18,19,19,20,20,23,23,24,24,25,25,26,26,27,27,28,28,29,29,32,32,36,36,37,37,38,38,41,41,42,42],"right_children":[2,4,6,8,10,12,14,16,-1,18,20,22,-1,24,26,28,-1,-1,30,32,34,-1,-1,36,38,40,42,44,46,48,-1,-1,50,-1,-1,-1,52,54,56,-1,-1,58,60,-1,-1,-1,-1,-1,-1,-1,-1,-1,-1,-1,-1,-1,-1,-1,-1,-1,-1],"split_conditions":[7.43945E5,5.74109E5,1.6772525E6,1.359079E6,2.3694E3,1.603385E6,5.36797E5,1.344472E6,-1.9570434E6,7.68875E5,8.7515E2,1.5499155E6,-3.2689538E6,4.019575E5,5.57581E5,2.6356E3,1.5248256E6,-1.5447985E6,3.15055E3,8.666645E5,5.798915E5,-1.3066369E6,4.8725762E5,1.2482E3,3.9672998E3,2.1955815E6,4.0714E3,9.3205005E2,3.82465E3,2.9979E3,1.16112E6,1.2268161E6,1.5320445E6,2.111232E5,2.6655425E6,1.8612576E6,1.0139755E6,3.1621E3,2.1671655E6,-3.7240322E6,4.3461122E5,6.12355E3,4.086E3,-2.5971414E5,8.4464644E5,-1.4250385E6,-9.18248E4,7.9014725E5,-3.4466133E4,-3.16608E5,2.84928E5,-8.170508E5,7.5557044E5,2.7693122E5,2.1481025E6,2.2990081E5,-7.62432E5,2.079437E5,-1.4162458E6,2.678016E6,6.123828E4],"split_indices":[3,6,0,0,4,0,6,0,0,6,2,0,0,6,6,1,0,0,1,0,6,0,0,5,1,0,4,5,7,7,0,0,0,0,0,0,3,1,0,0,0,7,4,0,0,0,0,0,0,0,0,0,0,0,0,0,0,0,0,0,0],"split_type":[0,0,0,0,0,0,0,0,0,0,0,0,0,0,0,0,0,0,0,0,0,0,0,0,0,0,0,0,0,0,0,0,0,0,0,0,0,0,0,0,0,0,0,0,0,0,0,0,0,0,0,0,0,0,0,0,0,0,0,0,0],"sum_hessian":[2E2,7.5E1,1.25E2,4.7E1,2.8E1,4E0,1.21E2,4.5E1,2E0,1.7E1,1.1E1,2E0,2E0,2.6E1,9.5E1,4.4E1,1E0,3E0,1.4E1,5E0,6E0,1E0,1E0,1.8E1,8E0,3E0,9.2E1,1.8E1,2.6E1,1.1E1,3E0,2E0,3E0,1E0,5E0,1E0,1.7E1,6E0,2E0,2E0,1E0,1.3E1,7.9E1,8E0,1E1,3E0,2.3E1,3E0,8E0,2E0,1E0,1E1,7E0,1E0,5E0,1E0,1E0,4E0,9E0,1E0,7.8E1],"tree_param":{"num_deleted":"0","num_feature":"8","num_nodes":"61","size_leaf_vector":"0"}},{"base_weights":[2.3633512E4,4.234464E4,-1.859296E6,2.378071E3,2.000112E6,2.6045389E4,-2.318208E6,2.6205972E6,6.9328E4,5.4165332E4,-1.0589696E6,-2.7444201E4,1.0937326E6,1.008896E6,-1.82816E6,9.9437125E4,-8.510293E5,2.331648E6,5.4415125E5,-5.27744E5,-2.0857174E6],"categories":[],"categories_nodes":[],"categories_segments":[],"categories_sizes":[],"default_left":[1,1,0,1,1,1,0,0,0,1,1,1,1,0,1,0,0,0,0,0,0],"id":34,"left_children":[1,3,-1,5,7,9,-1,-1,-1,11,13,15,17,-1,19,-1,-1,-1,-1,-1,-1],"loss_changes":[7.160309E12,1.5644291E13,0E0,1.0880022E13,4.6104125E12,6.0374296E12,0E0,0E0,0E0,1.6319027E13,9.797335E12,1.8789691E13,8.2559243E12,0E0,2.3900298E11,0E0,0E0,0E0,0E0,0E0,0E0],"parents":[2147483647,0,0,1,1,3,3,4,4,5,5,9,9,10,10,11,11,12,12,14,14],"right_children":[2,4,-1,6,8,10,-1,-1,-1,12,14,16,18,-1,20,-1,-1,-1,-1,-1,-1],"split_conditions":[2.8312648E4,2.768295E4,-1.1155776E6,2.7265E4,2.058542E6,2.41975E4,-1.3909249E6,1.5723584E6,4.15968E4,1.91744E4,3.783571E6,4.2806E3,1.5098551E4,6.053376E5,8.121905E6,5.9662277E4,-5.106176E5,1.3989889E6,3.2649075E5,-3.166464E5,-1.2514305E6],"split_indices":[4,4,0,4,0,1,0,0,0,7,3,2,1,0,0,0,0,0,0,0,0],"split_type":[0,0,0,0,0,0,0,0,0,0,0,0,0,0,0,0,0,0,0,0,0],"sum_hessian":[2E2,1.99E2,1E0,1.96E2,3E0,1.95E2,1E0,2E0,1E0,1.91E2,4E0,1.78E2,1.3E1,1E0,3E0,1.55E2,2.3E1,3E0,1E1,1E0,2E0],"tree_param":{"num_deleted":"0","num_feature":"8","num_nodes":"21","size_leaf_vector":"0"}},{"base_weights":[6.568438E3,-3.7073484E4,1.064064E6,2.896844E4,-9.588086E5,-2.492288E6,1.9281554E6,-9.025777E3,2.2989652E6,-2.3974948E6,6.168503E5,2.971456E6,4.02816E5,5.76916E4,-5.1691884E5,-2.6739412E6,-3.69408E5,1.3853014E6,3.24096E4,-1.126912E6,1.2883626E6,2.5992913E3,2.9399892E6,-1.2859078E6,6.5127825E5,-6.9376E5,-2.9312255E6,7.06176E5,-3.12576E5,6.2228496E4,-1.5183786E6,7.08672E5,3.701312E6,1.7429333E5,-2.22032E6,1.6410454E6,-9.96192E5,-3.55328E5,-9.216E4],"categories":[],"categories_nodes":[],"categories_segments":[],"categories_sizes":[],"default_left":[1,1,1,1,1,0,1,1,0,1,1,0,1,1,1,1,0,0,1,0,0,1,1,1,1,0,0,0,1,0,0,0,0,0,0,0,0,0,0],"id":35,"left_children":[1,3,5,7,9,-1,11,13,-1,15,17,-1,19,21,23,25,-1,-1,27,-1,-1,29,31,33,35,-1,-1,-1,37,-1,-1,-1,-1,-1,-1,-1,-1,-1,-1],"loss_changes":[9.315828E12,1.1837169E13,2.9389624E13,1.5717658E13,3.0948318E13,0E0,9.942763E12,6.1291747E12,0E0,2.9368265E12,3.0989012E12,0E0,6.8704535E12,2.5399147E13,1.9702424E13,1.0232508E12,0E0,0E0,1.3829322E12,0E0,0E0,1.442425E13,2.4732406E12,1.8124571E13,1.6310303E13,0E0,0E0,0E0,4.945871E9,0E0,0E0,0E0,0E0,0E0,0E0,0E0,0E0,0E0,0E0],"parents":[2147483647,0,0,1,1,2,2,3,3,4,4,6,6,7,7,9,9,10,10,12,12,13,13,14,14,15,15,18,18,21,21,22,22,23,23,24,24,28,28],"right_children":[2,4,6,8,10,-1,12,14,-1,16,18,-1,20,22,24,26,-1,-1,28,-1,-1,30,32,34,36,-1,-1,-1,38,-1,-1,-1,-1,-1,-1,-1,-1,-1,-1],"split_conditions":[5.839153E6,1.747508E6,8.79335E3,1.742547E6,1.324765E4,-1.4953729E6,5.9510185E6,1.4126365E6,1.3793792E6,2.45053E4,4.4812255E6,1.7828736E6,5.9976765E6,1.358418E6,2.310611E6,8.1097E3,-2.2164481E5,8.311809E5,8.1235325E6,-6.7614725E5,7.730176E5,1.268223E6,2.5701075E6,2.8863E3,2.9961135E6,-4.1625603E5,-1.7587354E6,4.2370562E5,5.5160835E6,3.7337098E4,-9.110272E5,4.2520322E5,2.2207872E6,1.04576E5,-1.332192E6,9.8462725E5,-5.9771525E5,-2.1319681E5,-5.5296004E4],"split_indices":[6,3,1,3,2,0,0,6,0,1,6,0,0,6,6,4,0,0,0,0,0,6,0,4,6,0,0,0,6,0,0,0,0,0,0,0,0,0,0],"split_type":[0,0,0,0,0,0,0,0,0,0,0,0,0,0,0,0,0,0,0,0,0,0,0,0,0,0,0,0,0,0,0,0,0,0,0,0,0,0,0],"sum_hessian":[2E2,1.93E2,7E0,1.81E2,1.2E1,1E0,6E0,1.79E2,2E0,6E0,6E0,3E0,3E0,1.59E2,2E1,5E0,1E0,2E0,4E0,1E0,2E0,1.57E2,2E0,1.2E1,8E0,1E0,4E0,1E0,3E0,1.52E2,5E0,1E0,1E0,5E0,7E0,5E0,3E0,2E0,1E0],"tree_param":{"num_deleted":"0","num_feature":"8","num_nodes":"39","size_leaf_vector":"0"}},{"base_weights":[9.0155625E3,-3.873044E5,1.0079083E5,1.1296492E5,-1.3580505E6,2.468176E6,4.1347777E4,-6.623779E5,8.248571E5,-2.185056E6,-3.3703772E5,3.1171628E6,2.60608E5,-7.833333E5,1.0704662E5,2.8487112E5,-2.2349505E6,3.016E6,2.0833333E5,-1.016064E6,-3.405024E6,1.0056E5,-6.90376E5,-2.0527744E6,1.07984E5,2.107264E6,6.5778375E4,6.8156344E5,-7.357013E5,2.122976E6,-1.587229E5,-1.2397654E6,-4.5367466E5,1.9300267E5,-8.8384E4,-1.0021547E6,1.2248E5,1.1972352E6,-1.280576E6,3.5952543E4,2.225088E6,1.0264053E6,-6.93744E5,-5.65008E5,6.426E4,2.28992E5,6.0512E4,1.10048E5,1.44152E6,-1.88224E5,-1.581952E6,3.312634E5,-1.340766E5],"categories":[],"categories_nodes":[],"categories_segments":[],"categories_sizes":[],"default_left":[1,1,1,1,1,1,1,1,1,1,1,0,0,1,1,1,0,0,1,1,0,1,1,0,1,0,1,1,0,0,1,0,0,1,0,0,0,1,1,1,0,0,0,0,0,0,0,0,0,0,0,0,0],"id":36,"left_children":[1,3,5,7,9,11,13,15,17,19,21,-1,-1,23,25,27,-1,-1,29,31,-1,33,35,-1,37,-1,39,41,-1,-1,43,-1,-1,45,-1,-1,-1,47,49,51,-1,-1,-1,-1,-1,-1,-1,-1,-1,-1,-1,-1,-1],"loss_changes":[7.349884E12,1.8607524E13,2.297678E13,1.4897339E13,1.0240534E13,4.918371E12,8.806928E12,2.0001705E13,1.8284154E13,6.523208E12,1.1517643E12,0E0,0E0,1.3799363E13,1.2243203E13,4.1451066E12,0E0,0E0,8.7703437E12,6.658615E10,0E0,8.69243E10,1.1364684E12,0E0,1.3633077E13,0E0,9.451678E12,4.0319076E12,0E0,0E0,1.03284834E12,0E0,0E0,4.479877E8,0E0,0E0,0E0,1.1692802E12,1.01907274E12,7.4254983E12,0E0,0E0,0E0,0E0,0E0,0E0,0E0,0E0,0E0,0E0,0E0,0E0,0E0],"parents":[2147483647,0,0,1,1,2,2,3,3,4,4,5,5,6,6,7,7,8,8,9,9,10,10,13,13,14,14,15,15,18,18,19,19,21,21,22,22,24,24,26,26,27,27,30,30,33,33,37,37,38,38,39,39],"right_children":[2,4,6,8,10,12,14,16,18,20,22,-1,-1,24,26,28,-1,-1,30,32,-1,34,36,-1,38,-1,40,42,-1,-1,44,-1,-1,46,-1,-1,-1,48,50,52,-1,-1,-1,-1,-1,-1,-1,-1,-1,-1,-1,-1,-1],"split_conditions":[2.933065E5,2.1596E5,3.19979E5,1.21595E3,4.6728E3,4.3657E3,4.017325E5,1.02465E3,8.778885E5,1.2912695E6,1.91151E6,1.8702978E6,1.5636481E5,4.12272E5,4.15274E5,1.694025E5,-1.3409704E6,1.8096001E6,1.2482E3,2.57613E5,-2.0430145E6,1.3444925E6,2.090406E6,-1.2316646E6,4.44195E3,1.2643585E6,2.768295E4,4.339565E5,-4.414208E5,1.2737856E6,3.9424E3,-7.4385925E5,-2.722048E5,8.63499E5,-5.3030402E4,-6.012928E5,7.3488E4,9.552735E5,1.6681545E6,9.1379E5,1.3350529E6,6.158432E5,-4.162464E5,-3.390048E5,3.8556E4,1.373952E5,3.6307203E4,6.6028805E4,8.6491206E5,-1.1293441E5,-9.4917125E5,1.9875805E5,-8.044596E4],"split_indices":[6,6,6,5,7,4,6,5,0,0,0,0,0,3,6,6,0,0,5,6,0,0,0,0,4,0,4,3,0,